{"learner":{"attributes":{"scikit_learn":"{\"_estimator_type\": \"classifier\"}"},"feature_names":["roe_z","roic_ce_z","pretax_noa_z","int_coverage_z","int_ltdebt_z","leverage_z","ev_multiple_z","pb_z","price_sales_z","ccc_z","score_profitability","score_health","score_market","score_efficiency","exec_score","alpha","mkt_beta","ivol","roe_z_chg3","roe_z_chg12","roe_z_roll3","roic_ce_z_chg3","roic_ce_z_chg12","roic_ce_z_roll3","pretax_noa_z_chg3","pretax_noa_z_chg12","pretax_noa_z_roll3","int_coverage_z_chg3","int_coverage_z_chg12","int_coverage_z_roll3","int_ltdebt_z_chg3","int_ltdebt_z_chg12","int_ltdebt_z_roll3","leverage_z_chg3","leverage_z_chg12","leverage_z_roll3","ev_multiple_z_chg3","ev_multiple_z_chg12","ev_multiple_z_roll3","pb_z_chg3","pb_z_chg12","pb_z_roll3","price_sales_z_chg3","price_sales_z_chg12","price_sales_z_roll3","ccc_z_chg3","ccc_z_chg12","ccc_z_roll3","exec_score_chg3","exec_score_chg12","exec_score_roll3"],"feature_types":["float","float","float","float","float","float","float","float","float","float","float","float","float","float","float","float","float","float","float","float","float","float","float","float","float","float","float","float","float","float","float","float","float","float","float","float","float","float","float","float","float","float","float","float","float","float","float","float","float","float","float"],"gradient_booster":{"model":{"cats":{"enc":[],"feature_segments":[],"sorted_idx":[]},"gbtree_model_param":{"num_parallel_tree":"1","num_trees":"300"},"iteration_indptr":[0,1,2,3,4,5,6,7,8,9,10,11,12,13,14,15,16,17,18,19,20,21,22,23,24,25,26,27,28,29,30,31,32,33,34,35,36,37,38,39,40,41,42,43,44,45,46,47,48,49,50,51,52,53,54,55,56,57,58,59,60,61,62,63,64,65,66,67,68,69,70,71,72,73,74,75,76,77,78,79,80,81,82,83,84,85,86,87,88,89,90,91,92,93,94,95,96,97,98,99,100,101,102,103,104,105,106,107,108,109,110,111,112,113,114,115,116,117,118,119,120,121,122,123,124,125,126,127,128,129,130,131,132,133,134,135,136,137,138,139,140,141,142,143,144,145,146,147,148,149,150,151,152,153,154,155,156,157,158,159,160,161,162,163,164,165,166,167,168,169,170,171,172,173,174,175,176,177,178,179,180,181,182,183,184,185,186,187,188,189,190,191,192,193,194,195,196,197,198,199,200,201,202,203,204,205,206,207,208,209,210,211,212,213,214,215,216,217,218,219,220,221,222,223,224,225,226,227,228,229,230,231,232,233,234,235,236,237,238,239,240,241,242,243,244,245,246,247,248,249,250,251,252,253,254,255,256,257,258,259,260,261,262,263,264,265,266,267,268,269,270,271,272,273,274,275,276,277,278,279,280,281,282,283,284,285,286,287,288,289,290,291,292,293,294,295,296,297,298,299,300],"tree_info":[0,0,0,0,0,0,0,0,0,0,0,0,0,0,0,0,0,0,0,0,0,0,0,0,0,0,0,0,0,0,0,0,0,0,0,0,0,0,0,0,0,0,0,0,0,0,0,0,0,0,0,0,0,0,0,0,0,0,0,0,0,0,0,0,0,0,0,0,0,0,0,0,0,0,0,0,0,0,0,0,0,0,0,0,0,0,0,0,0,0,0,0,0,0,0,0,0,0,0,0,0,0,0,0,0,0,0,0,0,0,0,0,0,0,0,0,0,0,0,0,0,0,0,0,0,0,0,0,0,0,0,0,0,0,0,0,0,0,0,0,0,0,0,0,0,0,0,0,0,0,0,0,0,0,0,0,0,0,0,0,0,0,0,0,0,0,0,0,0,0,0,0,0,0,0,0,0,0,0,0,0,0,0,0,0,0,0,0,0,0,0,0,0,0,0,0,0,0,0,0,0,0,0,0,0,0,0,0,0,0,0,0,0,0,0,0,0,0,0,0,0,0,0,0,0,0,0,0,0,0,0,0,0,0,0,0,0,0,0,0,0,0,0,0,0,0,0,0,0,0,0,0,0,0,0,0,0,0,0,0,0,0,0,0,0,0,0,0,0,0,0,0,0,0,0,0,0,0,0,0,0,0,0,0,0,0,0,0,0,0,0,0,0,0,0,0,0,0,0,0],"trees":[{"base_weights":[-4.557879E-3,3.0479148E-1,-3.420415E-1,5.728732E-1,-7.422681E-1,-1.4723295E0,-8.452079E-2,-1.3545072E0,7.0471364E-1,-1.6384565E0,-2.1143931E-4,-9.775281E-2,-1.8584076E-1,4.1694146E-1,-7.1756065E-1,7.167702E-2,-9.384616E-2,3.8569003E-2,-8.6666666E-2,6.0324825E-2,-9.6747965E-2,2.7682547E-2,-8.9999996E-2,7.323944E-2,-8.947369E-2,-3.437204E-2,3.554153E-2,-9.6363634E-2,-1.7696751E-2],"categories":[],"categories_nodes":[],"categories_segments":[],"categories_sizes":[],"default_left":[0,0,0,0,0,0,0,0,0,0,0,0,0,0,0,0,0,0,0,0,0,0,0,0,0,0,0,0,0],"id":0,"left_children":[1,3,5,7,9,11,13,15,17,19,21,-1,23,25,27,-1,-1,-1,-1,-1,-1,-1,-1,-1,-1,-1,-1,-1,-1],"loss_changes":[7.22371E1,1.0176195E2,9.6193756E1,7.413506E1,4.922883E1,3.7731506E1,8.6189095E1,3.0045113E1,4.5255966E1,3.0618889E1,4.2360863E1,0E0,4.9849323E1,4.9694557E1,5.2086388E1,0E0,0E0,0E0,0E0,0E0,0E0,0E0,0E0,0E0,0E0,0E0,0E0,0E0,0E0],"parents":[2147483647,0,0,1,1,2,2,3,3,4,4,5,5,6,6,7,7,8,8,9,9,10,10,12,12,13,13,14,14],"right_children":[2,4,6,8,10,12,14,16,18,20,22,-1,24,26,28,-1,-1,-1,-1,-1,-1,-1,-1,-1,-1,-1,-1,-1,-1],"split_conditions":[7.037971E-2,5.0123537E-1,-2.7895272E-1,-1.4931467E0,-5.900519E-2,-4.7515154E-1,9.266294E-3,-3.883251E0,2.819083E0,-2.5975866E0,7.201445E-1,-9.775281E-2,-2.3213325E0,6.2987447E-1,-1.579116E-1,7.167702E-2,-9.384616E-2,3.8569003E-2,-8.6666666E-2,6.0324825E-2,-9.6747965E-2,2.7682547E-2,-8.9999996E-2,7.323944E-2,-8.947369E-2,-3.437204E-2,3.554153E-2,-9.6363634E-2,-1.7696751E-2],"split_indices":[6,13,50,0,34,26,0,43,19,45,35,0,28,38,28,0,0,0,0,0,0,0,0,0,0,0,0,0,0],"split_type":[0,0,0,0,0,0,0,0,0,0,0,0,0,0,0,0,0,0,0,0,0,0,0,0,0,0,0,0,0],"sum_hessian":[6.899254E2,3.6001755E2,3.299079E2,2.869912E2,7.302631E1,6.0342106E1,2.695658E2,1.77807E1,2.692105E2,3.25307E1,4.0495613E1,4.35E1,1.6842106E1,1.5060526E2,1.18960526E2,2.5307016E0,1.525E1,2.627105E2,6.5E0,2.7807016E0,2.975E1,3.1495613E1,9E0,8.342105E0,8.5E0,3.1372807E1,1.1923245E2,2.65E1,9.2460526E1],"tree_param":{"num_deleted":"0","num_feature":"51","num_nodes":"29","size_leaf_vector":"1"}},{"base_weights":[-1.6411979E-2,-3.557278E-1,2.4446785E-1,1.1955348E-3,-1.053332E0,-1.5214268E0,3.6777303E-1,9.2706573E-1,-3.2728088E-1,-1.5966305E0,-2.3497216E-1,7.0313685E-2,-9.524303E-2,-7.9287654E-1,4.9230513E-1,-7.954099E-2,5.8443427E-2,1.8991731E-2,-5.467641E-2,-9.6059024E-2,1.97688E-2,-7.189495E-2,5.3652596E-2,-9.420589E-2,5.8132183E-2,3.730263E-2,-8.095341E-5],"categories":[],"categories_nodes":[],"categories_segments":[],"categories_sizes":[],"default_left":[0,0,0,0,0,0,0,0,0,0,0,0,0,0,0,0,0,0,0,0,0,0,0,0,0,0,0],"id":1,"left_children":[1,3,5,7,9,11,13,15,17,19,21,-1,-1,23,25,-1,-1,-1,-1,-1,-1,-1,-1,-1,-1,-1,-1],"loss_changes":[6.0733456E1,7.424952E1,8.502564E1,6.060119E1,4.45001E1,3.1319427E1,5.291571E1,3.362878E1,8.010954E1,3.9864883E1,6.6752945E1,0E0,0E0,7.8150665E1,4.1211052E1,0E0,0E0,0E0,0E0,0E0,0E0,0E0,0E0,0E0,0E0,0E0,0E0],"parents":[2147483647,0,0,1,1,2,2,3,3,4,4,5,5,6,6,7,7,8,8,9,9,10,10,13,13,14,14],"right_children":[2,4,6,8,10,12,14,16,18,20,22,-1,-1,24,26,-1,-1,-1,-1,-1,-1,-1,-1,-1,-1,-1,-1],"split_conditions":[1.3265683E-1,-8.303676E-3,-5.1126903E-1,-9.745158E-1,7.3083454E-1,-1.8049792E0,-2.1337967E0,-1.6475949E0,-5.8648473E-1,1.903954E0,6.228432E-3,7.0313685E-2,-9.524303E-2,4.3881172E-1,9.4716084E-1,-7.954099E-2,5.8443427E-2,1.8991731E-2,-5.467641E-2,-9.6059024E-2,1.97688E-2,-7.189495E-2,5.3652596E-2,-9.420589E-2,5.8132183E-2,3.730263E-2,-8.095341E-5],"split_indices":[2,0,48,34,3,22,34,35,7,6,35,0,0,45,25,0,0,0,0,0,0,0,0,0,0,0,0],"split_type":[0,0,0,0,0,0,0,0,0,0,0,0,0,0,0,0,0,0,0,0,0,0,0,0,0,0,0],"sum_hessian":[6.8411115E2,2.9719635E2,3.869148E2,1.9726543E2,9.993092E1,2.4513273E1,3.6240152E2,5.1180794E1,1.4608464E2,5.9487156E1,4.0443768E1,2.5297606E0,2.1983513E1,3.4596104E1,3.2780542E2,3.9956117E0,4.718518E1,7.623605E1,6.984858E1,5.1183567E1,8.303591E0,2.101656E1,1.9427208E1,2.2228449E1,1.2367655E1,2.1621645E2,1.1158898E2],"tree_param":{"num_deleted":"0","num_feature":"51","num_nodes":"27","size_leaf_vector":"1"}},{"base_weights":[-2.824513E-2,3.7900388E-1,-2.3647098E-1,-2.860414E-1,7.2640723E-1,-8.039826E-1,6.8061175E-3,-1.4274266E0,9.352995E-1,-1.2307564E0,9.764672E-1,-4.5349948E-2,-1.2245201E0,-3.4771034E-1,5.045368E-1,-8.239203E-2,6.8318E-2,-7.4484326E-2,6.0112655E-2,-9.0127185E-2,7.527078E-2,-2.7689088E-2,5.85298E-2,2.6382718E-2,-8.875694E-2,-9.495515E-2,-3.9920595E-2,1.6344285E-2,-3.8455423E-2,3.417505E-2,-8.801212E-2],"categories":[],"categories_nodes":[],"categories_segments":[],"categories_sizes":[],"default_left":[0,0,0,0,0,0,0,0,0,0,0,0,0,0,0,0,0,0,0,0,0,0,0,0,0,0,0,0,0,0,0],"id":2,"left_children":[1,3,5,7,9,11,13,15,17,19,21,23,25,27,29,-1,-1,-1,-1,-1,-1,-1,-1,-1,-1,-1,-1,-1,-1,-1,-1],"loss_changes":[5.64608E1,5.22569E1,6.0818367E1,1.100954E2,7.37632E1,4.2111893E1,5.4752747E1,2.7329926E1,2.6580692E1,2.9684793E1,3.9868073E1,4.868781E1,2.291549E1,5.1770424E1,5.351725E1,0E0,0E0,0E0,0E0,0E0,0E0,0E0,0E0,0E0,0E0,0E0,0E0,0E0,0E0,0E0,0E0],"parents":[2147483647,0,0,1,1,2,2,3,3,4,4,5,5,6,6,7,7,8,8,9,9,10,10,11,11,12,12,13,13,14,14],"right_children":[2,4,6,8,10,12,14,16,18,20,22,24,26,28,30,-1,-1,-1,-1,-1,-1,-1,-1,-1,-1,-1,-1,-1,-1,-1,-1],"split_conditions":[-7.1300054E-1,-2.3082511E-1,4.9305996E-1,3.6371222E-1,-5.2973115E-1,-4.9683142E-1,1.1777006E0,1.9820969E0,-1.6213195E0,2.335163E0,-2.012393E0,-1.941079E-2,0E0,7.037971E-2,1.740301E0,-8.239203E-2,6.8318E-2,-7.4484326E-2,6.0112655E-2,-9.0127185E-2,7.527078E-2,-2.7689088E-2,5.85298E-2,2.6382718E-2,-8.875694E-2,-9.495515E-2,-3.9920595E-2,1.6344285E-2,-3.8455423E-2,3.417505E-2,-8.801212E-2],"split_indices":[8,30,8,50,9,27,2,24,42,2,40,40,41,6,23,0,0,0,0,0,0,0,0,0,0,0,0,0,0,0,0],"split_type":[0,0,0,0,0,0,0,0,0,0,0,0,0,0,0,0,0,0,0,0,0,0,0,0,0,0,0,0,0,0,0],"sum_hessian":[6.637562E2,2.2428279E2,4.394734E2,7.701918E1,1.4726361E2,1.3117241E2,3.08301E2,3.9725548E1,3.7293633E1,1.623942E1,1.310242E2,4.717623E1,8.399618E1,1.8023045E2,1.2807054E2,3.720079E1,2.5247564E0,3.2441046E0,3.4049526E1,1.3714642E1,2.524779E0,1.4542008E1,1.16482185E2,3.5959396E1,1.1216834E1,3.1179022E1,5.2817154E1,6.938293E1,1.1084752E2,1.19338554E2,8.731995E0],"tree_param":{"num_deleted":"0","num_feature":"51","num_nodes":"31","size_leaf_vector":"1"}},{"base_weights":[-3.624993E-2,5.962321E-2,-1.2800788E0,-3.3042973E-1,2.4876086E-1,-1.6444893E0,1.0104557E0,7.9981405E-1,-6.942318E-1,4.876645E-1,-1.6787502E-1,5.6713212E-2,-9.336597E-2,-5.2054733E-2,8.0202825E-2,-8.1975356E-2,5.5808254E-2,5.561437E-3,-6.957606E-2,-4.363325E-2,2.9756898E-2,3.6136748E-3,-9.2829704E-2],"categories":[],"categories_nodes":[],"categories_segments":[],"categories_sizes":[],"default_left":[0,0,0,0,0,0,0,0,0,0,0,0,0,0,0,0,0,0,0,0,0,0,0],"id":3,"left_children":[1,3,5,7,9,11,13,15,17,19,21,-1,-1,-1,-1,-1,-1,-1,-1,-1,-1,-1,-1],"loss_changes":[8.1066154E1,4.6671314E1,4.226738E1,8.5528114E1,4.2470222E1,2.8341179E1,1.0555798E1,4.101987E1,8.8258286E1,4.0127197E1,6.337611E1,0E0,0E0,0E0,0E0,0E0,0E0,0E0,0E0,0E0,0E0,0E0,0E0],"parents":[2147483647,0,0,1,1,2,2,3,3,4,4,5,5,6,6,7,7,8,8,9,9,10,10],"right_children":[2,4,6,8,10,12,14,16,18,20,22,-1,-1,-1,-1,-1,-1,-1,-1,-1,-1,-1,-1],"split_conditions":[1.6481835E0,-5.079822E-1,2.9036963E0,-9.745158E-1,1.9888782E-3,-2.0755398E0,1.6078951E0,-1.2998511E0,-8.2390934E-1,-2.5974445E0,5.514333E-1,5.6713212E-2,-9.336597E-2,-5.2054733E-2,8.0202825E-2,-8.1975356E-2,5.5808254E-2,5.561437E-3,-6.957606E-2,-4.363325E-2,2.9756898E-2,3.6136748E-3,-9.2829704E-2],"split_indices":[23,26,31,34,22,7,6,31,49,31,5,0,0,0,0,0,0,0,0,0,0,0,0],"split_type":[0,0,0,0,0,0,0,0,0,0,0,0,0,0,0,0,0,0,0,0,0,0,0],"sum_hessian":[6.781613E2,6.305139E2,4.764735E1,2.056536E2,4.2486035E2,4.135074E1,6.29661E0,4.9785076E1,1.5586852E2,2.6991666E2,1.5494368E2,2.7661242E0,3.8584614E1,1.2438527E0,5.0527573E0,5.2351656E0,4.4549908E1,7.271438E1,8.315414E1,1.9242157E1,2.506745E2,1.3649086E2,1.8452822E1],"tree_param":{"num_deleted":"0","num_feature":"51","num_nodes":"23","size_leaf_vector":"1"}},{"base_weights":[9.201702E-3,3.0093E-1,-2.8670266E-1,-4.159984E-1,5.1696646E-1,-8.0784047E-1,7.53251E-2,-9.669361E-1,7.6530784E-1,-2.505857E-1,8.1604415E-1,-1.3513654E-1,-9.1813296E-2,8.7302685E-1,-2.8992763E-1,-7.7813685E-2,1.792025E-2,6.391046E-2,-7.654123E-2,6.448081E-2,-3.7242915E-2,5.272847E-2,-1.251405E-2,-6.2268507E-2,3.2996E-2,-7.59147E-2,5.503584E-2,-9.2515446E-2,-4.7511977E-4],"categories":[],"categories_nodes":[],"categories_segments":[],"categories_sizes":[],"default_left":[0,0,0,0,0,0,0,0,0,0,0,0,0,0,0,0,0,0,0,0,0,0,0,0,0,0,0,0,0],"id":4,"left_children":[1,3,5,7,9,11,13,15,17,19,21,23,-1,25,27,-1,-1,-1,-1,-1,-1,-1,-1,-1,-1,-1,-1,-1,-1],"loss_changes":[5.911393E1,5.362092E1,6.420357E1,5.3065865E1,6.113272E1,9.622694E1,5.897135E1,4.3727787E1,3.27286E1,5.8198383E1,4.8902267E1,7.619064E1,0E0,3.6269817E1,6.0798256E1,0E0,0E0,0E0,0E0,0E0,0E0,0E0,0E0,0E0,0E0,0E0,0E0,0E0,0E0],"parents":[2147483647,0,0,1,1,2,2,3,3,4,4,5,5,6,6,7,7,8,8,9,9,10,10,11,11,13,13,14,14],"right_children":[2,4,6,8,10,12,14,16,18,20,22,24,-1,26,28,-1,-1,-1,-1,-1,-1,-1,-1,-1,-1,-1,-1,-1,-1],"split_conditions":[3.3905774E-2,-4.0810722E-1,0E0,-2.7427182E-1,-3.4446302E-1,-1.1598269E0,-6.5764385E-1,1.0678946E0,5.7582796E-1,-1.7000084E0,1.327934E0,5.5186576E-1,-9.1813296E-2,-3.066409E-1,-4.4044033E-1,-7.7813685E-2,1.792025E-2,6.391046E-2,-7.654123E-2,6.448081E-2,-3.7242915E-2,5.272847E-2,-1.251405E-2,-6.2268507E-2,3.2996E-2,-7.59147E-2,5.503584E-2,-9.2515446E-2,-4.7511977E-4],"split_indices":[6,9,3,6,28,29,23,8,43,8,3,36,0,50,20,0,0,0,0,0,0,0,0,0,0,0,0,0,0],"split_type":[0,0,0,0,0,0,0,0,0,0,0,0,0,0,0,0,0,0,0,0,0,0,0,0,0,0,0,0,0],"sum_hessian":[6.827945E2,3.4381488E2,3.389796E2,7.939913E1,2.6441574E2,1.3844995E2,2.0052966E2,5.4270103E1,2.5129028E1,7.418631E1,1.9022943E2,8.438454E1,5.406541E1,6.2544353E1,1.3798532E2,3.7445168E1,1.6824934E1,2.0903095E1,4.2259336E0,1.7632523E1,5.6553787E1,1.5546472E2,3.476472E1,3.4976383E1,4.940815E1,4.9446588E0,5.7599693E1,2.0167618E1,1.17817696E2],"tree_param":{"num_deleted":"0","num_feature":"51","num_nodes":"29","size_leaf_vector":"1"}},{"base_weights":[3.231455E-2,2.2172505E-1,-5.4000026E-1,-5.425744E-1,3.6267024E-1,-1.1335593E0,2.7935363E-2,7.7443117E-1,-1.2691727E0,-1.0462655E0,4.4422632E-1,8.8614774E-1,-1.6615611E0,2.7974078E-1,-8.834075E-2,-7.660977E-2,6.33079E-2,-7.973208E-2,7.126257E-2,2.2178927E-2,-8.94819E-2,-8.461204E-2,2.5057007E-2,-6.544216E-2,6.756028E-2,2.8873438E-2,-9.011504E-2,2.6304448E-2,-8.63665E-2],"categories":[],"categories_nodes":[],"categories_segments":[],"categories_sizes":[],"default_left":[0,0,0,0,0,0,0,0,0,0,0,0,0,0,0,0,0,0,0,0,0,0,0,0,0,0,0,0,0],"id":5,"left_children":[1,3,5,7,9,11,13,15,17,19,21,23,25,27,-1,-1,-1,-1,-1,-1,-1,-1,-1,-1,-1,-1,-1,-1,-1],"loss_changes":[7.5911255E1,5.6862137E1,5.8736908E1,7.973994E1,5.156642E1,9.230505E1,4.1154163E1,3.5834335E1,4.9118034E1,2.8074081E1,5.205007E1,2.0453796E1,2.2428528E1,4.0346817E1,0E0,0E0,0E0,0E0,0E0,0E0,0E0,0E0,0E0,0E0,0E0,0E0,0E0,0E0,0E0],"parents":[2147483647,0,0,1,1,2,2,3,3,4,4,5,5,6,6,7,7,8,8,9,9,10,10,11,11,12,12,13,13],"right_children":[2,4,6,8,10,12,14,16,18,20,22,24,26,28,-1,-1,-1,-1,-1,-1,-1,-1,-1,-1,-1,-1,-1,-1,-1],"split_conditions":[6.289184E-1,-9.1042435E-1,4.718183E-1,-6.404873E-1,-1.6083232E0,-1.7748938E0,9.597602E-1,-1.3482993E0,1.8633095E0,-1.0361567E0,-3.0214665E0,1.2959539E0,-1.6061282E0,2.5121644E-2,-8.834075E-2,-7.660977E-2,6.33079E-2,-7.973208E-2,7.126257E-2,2.2178927E-2,-8.94819E-2,-8.461204E-2,2.5057007E-2,-6.544216E-2,6.756028E-2,2.8873438E-2,-9.011504E-2,2.6304448E-2,-8.63665E-2],"split_indices":[12,47,26,22,3,24,14,34,49,42,31,8,47,46,0,0,0,0,0,0,0,0,0,0,0,0,0,0,0],"split_type":[0,0,0,0,0,0,0,0,0,0,0,0,0,0,0,0,0,0,0,0,0,0,0,0,0,0,0,0,0],"sum_hessian":[6.981681E2,5.25022E2,1.7314612E2,8.1301445E1,4.4372055E2,8.417621E1,8.89699E1,2.8883121E1,5.241832E1,2.3632069E1,4.2008847E2,1.7304585E1,6.687163E1,7.876344E1,1.0206462E1,4.703529E0,2.4179592E1,4.7133118E1,5.2852044E0,8.000668E0,1.5631401E1,1.0154872E1,4.099336E2,2.708164E0,1.459642E1,3.7712731E0,6.3100353E1,7.081008E1,7.953357E0],"tree_param":{"num_deleted":"0","num_feature":"51","num_nodes":"29","size_leaf_vector":"1"}},{"base_weights":[-5.20993E-2,-2.6957488E-1,5.0835204E-1,1.23258255E-1,-6.3760906E-1,-3.8660738E-1,8.710794E-1,-9.9995893E-1,4.270304E-1,4.3876714E-1,-8.3020264E-1,1.2171632E0,-1.0388738E0,-7.724436E-2,9.9644566E-1,-6.572195E-2,5.0499227E-2,-5.4886006E-3,4.940853E-2,-7.73853E-2,4.3512937E-2,-7.299576E-2,-2.2697074E-2,8.501654E-2,-6.2313866E-2,-7.411986E-2,3.927537E-2,-7.4320786E-2,5.4958742E-2],"categories":[],"categories_nodes":[],"categories_segments":[],"categories_sizes":[],"default_left":[0,0,0,0,0,0,0,0,0,0,0,0,0,0,0,0,0,0,0,0,0,0,0,0,0,0,0,0,0],"id":6,"left_children":[1,3,5,7,9,11,13,15,17,19,21,23,25,-1,27,-1,-1,-1,-1,-1,-1,-1,-1,-1,-1,-1,-1,-1,-1],"loss_changes":[8.0524475E1,6.8869644E1,6.0303513E1,7.924133E1,5.132399E1,5.7720657E1,4.144593E1,3.2597904E1,5.5086967E1,3.3886818E1,4.882364E1,2.1239363E1,3.2644604E1,0E0,3.373719E1,0E0,0E0,0E0,0E0,0E0,0E0,0E0,0E0,0E0,0E0,0E0,0E0,0E0,0E0],"parents":[2147483647,0,0,1,1,2,2,3,3,4,4,5,5,6,6,7,7,8,8,9,9,10,10,11,11,12,12,14,14],"right_children":[2,4,6,8,10,12,14,16,18,20,22,24,26,-1,28,-1,-1,-1,-1,-1,-1,-1,-1,-1,-1,-1,-1,-1,-1],"split_conditions":[7.942108E-1,-9.194684E-2,-2.1045591E-1,-4.971334E-1,-1.4979922E0,-7.4044776E-1,-1.24059E0,2.6141685E-1,8.300824E-1,6.2987447E-1,8.934401E-1,-2.4551907E-1,1.8706894E0,-7.724436E-2,-1.5488057E0,-6.572195E-2,5.0499227E-2,-5.4886006E-3,4.940853E-2,-7.73853E-2,4.3512937E-2,-7.299576E-2,-2.2697074E-2,8.501654E-2,-6.2313866E-2,-7.411986E-2,3.927537E-2,-7.4320786E-2,5.4958742E-2],"split_indices":[33,6,28,47,9,9,9,38,4,38,38,40,9,0,32,0,0,0,0,0,0,0,0,0,0,0,0,0,0],"split_type":[0,0,0,0,0,0,0,0,0,0,0,0,0,0,0,0,0,0,0,0,0,0,0,0,0,0,0,0,0],"sum_hessian":[6.585379E2,4.7481238E2,1.8372552E2,2.2999011E2,2.4482227E2,5.2968983E1,1.3075655E2,4.8471565E1,1.8151855E2,3.6963078E1,2.0785919E2,1.5064023E1,3.790496E1,5.891768E0,1.2486478E2,4.221288E1,6.258686E0,9.3182205E1,8.833634E1,6.1345162E0,3.0828562E1,7.6667694E1,1.311915E2,1.2852891E1,2.2111318E0,3.064286E1,7.2621007E0,4.4259043E0,1.2043887E2],"tree_param":{"num_deleted":"0","num_feature":"51","num_nodes":"29","size_leaf_vector":"1"}},{"base_weights":[5.695828E-3,2.8966695E-1,-3.014047E-1,-7.653158E-1,4.5442125E-1,-4.0707695E-1,8.509658E-2,-1.2194324E0,1.0907573E0,-8.956537E-1,5.5265486E-1,-1.5210426E0,-1.6620457E-1,1.733954E-2,-8.297165E-2,-5.481242E-2,7.998965E-2,2.8638346E-2,-8.716144E-2,3.0763492E-2,-7.973629E-2,-8.452839E-2,3.7761927E-2,-5.826016E-2,3.1679724E-3],"categories":[],"categories_nodes":[],"categories_segments":[],"categories_sizes":[],"default_left":[0,0,0,0,0,0,0,0,0,0,0,0,0,0,0,0,0,0,0,0,0,0,0,0,0],"id":7,"left_children":[1,3,5,7,9,11,-1,13,15,17,19,21,23,-1,-1,-1,-1,-1,-1,-1,-1,-1,-1,-1,-1],"loss_changes":[5.9277245E1,6.1730087E1,6.982721E1,4.1850418E1,4.108782E1,8.32002E1,0E0,2.75182E1,1.286171E1,2.7311392E1,3.9427612E1,2.2566902E1,5.897701E1,0E0,0E0,0E0,0E0,0E0,0E0,0E0,0E0,0E0,0E0,0E0,0E0],"parents":[2147483647,0,0,1,1,2,2,3,3,4,4,5,5,7,7,8,8,9,9,10,10,11,11,12,12],"right_children":[2,4,6,8,10,12,-1,14,16,18,20,22,24,-1,-1,-1,-1,-1,-1,-1,-1,-1,-1,-1,-1],"split_conditions":[3.3905774E-2,-9.1042435E-1,3.570022E0,2.6141685E-1,-1.4931467E0,-2.7895272E-1,8.509658E-2,-3.1428066E-1,8.7376755E-1,-4.1143572E-1,2.819083E0,2.311617E0,-4.0790874E-1,1.733954E-2,-8.297165E-2,-5.481242E-2,7.998965E-2,2.8638346E-2,-8.716144E-2,3.0763492E-2,-7.973629E-2,-8.452839E-2,3.7761927E-2,-5.826016E-2,3.1679724E-3],"split_indices":[6,47,36,38,0,50,0,11,11,46,19,25,28,0,0,0,0,0,0,0,0,0,0,0,0],"split_type":[0,0,0,0,0,0,0,0,0,0,0,0,0,0,0,0,0,0,0,0,0,0,0,0,0],"sum_hessian":[6.777238E2,3.5215152E2,3.255723E2,4.7074013E1,3.050775E2,3.1001633E2,1.5555981E1,3.8096203E1,8.977813E0,2.0141733E1,2.849358E2,5.417194E1,2.5584439E2,8.401635E0,2.9694567E1,1.4772828E0,7.5005302E0,7.4898405E0,1.2651893E1,2.7755606E2,7.3797174E0,5.065662E1,3.5153193E0,4.7044426E1,2.0879996E2],"tree_param":{"num_deleted":"0","num_feature":"51","num_nodes":"25","size_leaf_vector":"1"}},{"base_weights":[3.9549895E-2,-1.3264924E-1,4.8857006E-1,-4.7791507E-2,-1.2453066E0,-7.942011E-2,6.145638E-1,2.862549E-1,-3.893161E-1,-8.8107996E-2,1.9342907E-1,-7.193108E-1,8.571681E-1,1.9846331E-2,-8.1238866E-2,-4.649863E-2,7.965489E-3,-7.3301785E-2,7.292034E-2,3.5941713E-2,-8.3781265E-2,-6.966903E-2,4.661354E-2],"categories":[],"categories_nodes":[],"categories_segments":[],"categories_sizes":[],"default_left":[0,0,0,0,0,0,0,0,0,0,0,0,0,0,0,0,0,0,0,0,0,0,0],"id":8,"left_children":[1,3,5,7,9,-1,11,13,15,-1,17,19,21,-1,-1,-1,-1,-1,-1,-1,-1,-1,-1],"loss_changes":[5.3148926E1,4.686819E1,5.083251E1,5.291493E1,2.6501156E1,0E0,5.897679E1,5.0253586E1,6.815781E1,0E0,2.3547613E1,4.0121853E1,2.7167511E1,0E0,0E0,0E0,0E0,0E0,0E0,0E0,0E0,0E0,0E0],"parents":[2147483647,0,0,1,1,2,2,3,3,4,4,6,6,7,7,8,8,10,10,11,11,12,12],"right_children":[2,4,6,8,10,-1,12,14,16,-1,18,20,22,-1,-1,-1,-1,-1,-1,-1,-1,-1,-1],"split_conditions":[7.942108E-1,1.4301054E0,-1.5511817E0,-9.194684E-2,1.3073788E0,-7.942011E-2,-7.368773E-1,1.6662349E0,2.359774E-1,-8.8107996E-2,-1.1575909E-1,-1.8612027E0,-1.3722368E0,1.9846331E-2,-8.1238866E-2,-4.649863E-2,7.965489E-3,-7.3301785E-2,7.292034E-2,3.5941713E-2,-8.3781265E-2,-6.966903E-2,4.661354E-2],"split_indices":[33,42,32,6,5,0,11,23,11,0,50,3,29,0,0,0,0,0,0,0,0,0,0],"split_type":[0,0,0,0,0,0,0,0,0,0,0,0,0,0,0,0,0,0,0,0,0,0,0],"sum_hessian":[6.85543E2,4.9602292E2,1.895201E2,4.6184305E2,3.4179886E1,1.0175343E1,1.7934476E2,2.3355951E2,2.2828354E2,2.4980913E1,9.198973E0,2.729697E1,1.5204779E2,2.2152296E2,1.2036539E1,1.1462677E2,1.1365677E2,3.9102967E0,5.2886763E0,1.1001216E1,1.6295753E1,4.3432674E0,1.4770451E2],"tree_param":{"num_deleted":"0","num_feature":"51","num_nodes":"23","size_leaf_vector":"1"}},{"base_weights":[2.215515E-4,2.4308398E-1,-2.9174876E-1,-1.2801285E0,3.354484E-1,7.0949626E-1,-4.351911E-1,5.042514E-2,-8.372521E-2,4.967387E-1,-5.003044E-1,-7.4428275E-2,1.1870692E0,-8.0153483E-1,1.3474521E-1,2.9025758E-2,-5.2079905E-2,-8.730117E-2,1.858019E-2,8.005478E-2,-7.14314E-2,-4.850019E-2,5.109128E-2,-2.7191123E-2,4.969091E-2],"categories":[],"categories_nodes":[],"categories_segments":[],"categories_sizes":[],"default_left":[0,0,0,0,0,0,0,0,0,0,0,0,0,0,0,0,0,0,0,0,0,0,0,0,0],"id":9,"left_children":[1,3,5,7,9,11,13,-1,-1,15,17,-1,19,21,23,-1,-1,-1,-1,-1,-1,-1,-1,-1,-1],"loss_changes":[4.7267616E1,5.1627068E1,4.3782322E1,2.0654072E1,4.6604477E1,4.198394E1,5.551844E1,0E0,0E0,3.7819138E1,6.161328E1,0E0,3.6974434E1,5.065911E1,6.1571186E1,0E0,0E0,0E0,0E0,0E0,0E0,0E0,0E0,0E0,0E0],"parents":[2147483647,0,0,1,1,2,2,3,3,4,4,5,5,6,6,9,9,10,10,12,12,13,13,14,14],"right_children":[2,4,6,8,10,12,14,-1,-1,16,18,-1,20,22,24,-1,-1,-1,-1,-1,-1,-1,-1,-1,-1],"split_conditions":[1.543827E-1,-1.4931467E0,-1.7748938E0,-3.883251E0,1.4294487E0,-2.6194212E-1,1.1064221E0,5.042514E-2,-8.372521E-2,1.2739488E0,5.539462E-1,-7.4428275E-2,-8.7298626E-1,2.6861181E0,1.2643448E0,2.9025758E-2,-5.2079905E-2,-8.730117E-2,1.858019E-2,8.005478E-2,-7.14314E-2,-4.850019E-2,5.109128E-2,-2.7191123E-2,4.969091E-2],"split_indices":[6,0,24,43,3,30,2,0,0,13,0,0,25,36,32,0,0,0,0,0,0,0,0,0,0],"split_type":[0,0,0,0,0,0,0,0,0,0,0,0,0,0,0,0,0,0,0,0,0,0,0,0,0],"sum_hessian":[6.645989E2,3.6290228E2,3.0169656E2,2.0012354E1,3.4288992E2,3.73115E1,2.6438507E2,2.7127233E0,1.7299631E1,2.877611E2,5.5128807E1,6.281862E0,3.1029638E1,1.6069023E2,1.0369485E2,2.7348975E2,1.4271374E1,2.228586E1,3.2842945E1,2.712417E1,3.9054687E0,1.4752748E2,1.3162754E1,5.8138866E1,4.5555977E1],"tree_param":{"num_deleted":"0","num_feature":"51","num_nodes":"25","size_leaf_vector":"1"}},{"base_weights":[-2.3947857E-2,9.9492945E-2,-6.987859E-1,-1.3544464E0,1.6247791E-1,3.200652E-1,-1.2196251E0,-8.811643E-2,6.9792986E-2,-2.505654E-1,3.6158895E-1,8.5748464E-1,-7.395581E-2,6.683757E-2,-1.3403118E0,1.0214628E-3,-6.272338E-2,-8.0783516E-2,2.1348778E-2,-7.291326E-2,6.38067E-2,-8.697195E-2,-2.4961779E-2],"categories":[],"categories_nodes":[],"categories_segments":[],"categories_sizes":[],"default_left":[0,0,0,0,0,0,0,0,0,0,0,0,0,0,0,0,0,0,0,0,0,0,0],"id":10,"left_children":[1,3,5,7,9,11,13,-1,-1,15,17,19,-1,-1,21,-1,-1,-1,-1,-1,-1,-1,-1],"loss_changes":[5.4320805E1,5.0717556E1,5.3896976E1,2.826487E1,4.363107E1,3.501431E1,2.2440964E1,0E0,0E0,4.7034073E1,4.692651E1,2.8528156E1,0E0,0E0,2.0754501E1,0E0,0E0,0E0,0E0,0E0,0E0,0E0,0E0],"parents":[2147483647,0,0,1,1,2,2,3,3,4,4,5,5,6,6,9,9,10,10,11,11,14,14],"right_children":[2,4,6,8,10,12,14,-1,-1,16,18,20,-1,-1,22,-1,-1,-1,-1,-1,-1,-1,-1],"split_conditions":[1.3672439E0,-2.562692E0,-1.0560709E0,2.6092086E0,-2.3082511E-1,1.2121656E0,-6.8100667E-1,-8.811643E-2,6.9792986E-2,6.289184E-1,-1.6335291E0,-9.760995E-1,-7.395581E-2,6.683757E-2,9.255447E-1,1.0214628E-3,-6.272338E-2,-8.0783516E-2,2.1348778E-2,-7.291326E-2,6.38067E-2,-8.697195E-2,-2.4961779E-2],"split_indices":[19,37,32,1,30,42,0,0,0,12,20,8,0,0,24,0,0,0,0,0,0,0,0],"split_type":[0,0,0,0,0,0,0,0,0,0,0,0,0,0,0,0,0,0,0,0,0,0,0],"sum_hessian":[6.50256E2,5.5042523E2,9.983076E1,2.2003109E1,5.284221E2,3.390068E1,6.593008E1,1.9474222E1,2.5288858E0,1.7179202E2,3.5663013E2,2.6506525E1,7.394154E0,2.5179894E0,6.3412086E1,1.3604697E2,3.574505E1,1.0657033E1,3.4597308E2,3.6780734E0,2.2828453E1,4.228019E1,2.1131899E1],"tree_param":{"num_deleted":"0","num_feature":"51","num_nodes":"23","size_leaf_vector":"1"}},{"base_weights":[1.2918297E-2,1.306836E-1,-6.162221E-1,-1.3168919E0,1.9302556E-1,-1.0430089E0,1.6974242E-1,-8.5052446E-2,6.657917E-2,2.2916155E-1,-8.579238E-2,-1.3802173E0,6.040503E-1,1.1559228E0,-1.1713794E0,2.5358144E-2,3.4215377E-4,-3.663857E-3,-8.482857E-2,-6.750631E-2,7.147623E-2,7.1405314E-2,-5.679966E-2,2.7418777E-2,-8.275969E-2],"categories":[],"categories_nodes":[],"categories_segments":[],"categories_sizes":[],"default_left":[0,0,0,0,0,0,0,0,0,0,0,0,0,0,0,0,0,0,0,0,0,0,0,0,0],"id":11,"left_children":[1,3,5,7,9,11,13,-1,-1,15,-1,17,19,21,23,-1,-1,-1,-1,-1,-1,-1,-1,-1,-1],"loss_changes":[4.944218E1,5.097266E1,3.5472023E1,2.6004078E1,3.7619698E1,3.878517E1,5.146521E1,0E0,0E0,3.2786087E1,0E0,2.3452415E1,2.1784184E1,1.5556576E1,1.4679464E1,0E0,0E0,0E0,0E0,0E0,0E0,0E0,0E0,0E0,0E0],"parents":[2147483647,0,0,1,1,2,2,3,3,4,4,5,5,6,6,9,9,11,11,12,12,13,13,14,14],"right_children":[2,4,6,8,10,12,14,-1,-1,16,-1,18,20,22,24,-1,-1,-1,-1,-1,-1,-1,-1,-1,-1],"split_conditions":[1.3672439E0,-2.562692E0,1.3910939E0,3.6322525E0,2.4447222E0,9.569052E-1,-2.3426461E-1,-8.5052446E-2,6.657917E-2,-1.7971249E-1,-8.579238E-2,-2.090081E0,-1.6550503E0,1.1605935E0,-1.0201515E0,2.5358144E-2,3.4215377E-4,-3.663857E-3,-8.482857E-2,-6.750631E-2,7.147623E-2,7.1405314E-2,-5.679966E-2,2.7418777E-2,-8.275969E-2],"split_indices":[19,37,2,24,24,50,21,0,0,27,0,22,34,49,44,0,0,0,0,0,0,0,0,0,0],"split_type":[0,0,0,0,0,0,0,0,0,0,0,0,0,0,0,0,0,0,0,0,0,0,0,0,0],"sum_hessian":[6.6523083E2,5.610106E2,1.042202E2,2.233231E1,5.3867834E2,6.7331474E1,3.688873E1,1.9815788E1,2.5165222E0,5.2953394E2,9.144415E0,5.6023575E1,1.1307897E1,2.1336927E1,1.5551801E1,2.3473055E2,2.9480338E2,1.1158121E1,4.486545E1,3.1693642E0,8.138533E0,1.9408865E1,1.9280638E0,3.3852453E0,1.2166555E1],"tree_param":{"num_deleted":"0","num_feature":"51","num_nodes":"25","size_leaf_vector":"1"}},{"base_weights":[1.1179105E-1,1.5856865E-1,-7.800755E-2,1.880075E-1,-8.1278875E-2,5.284694E-2,5.544189E-1,-3.7812274E-2,7.519403E-3,-8.198583E-2,3.4352716E-2],"categories":[],"categories_nodes":[],"categories_segments":[],"categories_sizes":[],"default_left":[0,0,0,0,0,0,0,0,0,0,0],"id":12,"left_children":[1,3,-1,5,-1,7,9,-1,-1,-1,-1],"loss_changes":[5.4438446E1,3.5755974E1,0E0,3.289878E1,0E0,3.8533638E1,5.3237858E1,0E0,0E0,0E0,0E0],"parents":[2147483647,0,0,1,1,3,3,5,5,6,6],"right_children":[2,4,-1,6,-1,8,10,-1,-1,-1,-1],"split_conditions":[2.8709054E0,1.8803195E0,-7.800755E-2,1.3822079E0,-8.1278875E-2,-1.69165E0,-4.692569E-1,-3.7812274E-2,7.519403E-3,-8.198583E-2,3.4352716E-2],"split_indices":[19,35,0,2,0,37,48,0,0,0,0],"split_type":[0,0,0,0,0,0,0,0,0,0,0],"sum_hessian":[6.9189667E2,6.7394617E2,1.7950508E1,6.638865E2,1.0059673E1,4.858223E2,1.7806422E2,5.1541164E1,4.3428113E2,9.502672E0,1.6856154E2],"tree_param":{"num_deleted":"0","num_feature":"51","num_nodes":"11","size_leaf_vector":"1"}},{"base_weights":[4.968685E-2,1.07546635E-1,-1.3800349E0,2.069159E-1,-4.4762927E-1,5.0172556E-2,-8.416908E-2,1.2336424E-1,9.0751475E-1,-1.4042104E0,1.1260142E-1,-8.213379E-2,9.532333E-3,-7.21918E-2,5.8761653E-2,2.541632E-2,-8.1505135E-2,-1.968651E-2,5.287472E-2],"categories":[],"categories_nodes":[],"categories_segments":[],"categories_sizes":[],"default_left":[0,0,0,0,0,0,0,0,0,0,0,0,0,0,0,0,0,0,0],"id":13,"left_children":[1,3,5,7,9,-1,-1,11,13,15,17,-1,-1,-1,-1,-1,-1,-1,-1],"loss_changes":[5.623862E1,3.6094887E1,2.0809525E1,3.23294E1,5.3421883E1,0E0,0E0,5.928715E1,3.8770615E1,1.6720192E1,3.0847517E1,0E0,0E0,0E0,0E0,0E0,0E0,0E0,0E0],"parents":[2147483647,0,0,1,1,2,2,3,3,4,4,7,7,8,8,9,9,10,10],"right_children":[2,4,6,8,10,-1,-1,12,14,16,18,-1,-1,-1,-1,-1,-1,-1,-1],"split_conditions":[2.565352E0,1.5873568E0,4.4292417E-1,1.7354822E0,5.092675E-1,5.0172556E-2,-8.416908E-2,-1.7026013E0,-8.895551E-1,-2.719625E0,-4.5434183E-1,-8.213379E-2,9.532333E-3,-7.21918E-2,5.8761653E-2,2.541632E-2,-8.1505135E-2,-1.968651E-2,5.287472E-2],"split_indices":[34,19,5,26,11,0,0,4,47,37,5,0,0,0,0,0,0,0,0],"split_type":[0,0,0,0,0,0,0,0,0,0,0,0,0,0,0,0,0,0,0],"sum_hessian":[6.7704517E2,6.5160016E2,2.5445004E1,5.532101E2,9.839011E1,2.6122026E0,2.28328E1,4.95316E2,5.7894062E1,3.5783726E1,6.260638E1,1.7318647E1,4.7799738E2,5.4688044E0,5.2425255E1,3.6479254E0,3.21358E1,4.1142834E1,2.1463547E1],"tree_param":{"num_deleted":"0","num_feature":"51","num_nodes":"19","size_leaf_vector":"1"}},{"base_weights":[5.2709542E-2,1.585948E-2,1.551243E0,2.4264103E-1,-2.1815996E-1,8.396102E-2,3.5004694E-2,4.8827145E-1,-4.179969E-1,-1.3190821E0,4.4608455E-2,-7.362631E-2,2.79093E-2,1.7348928E-2,-6.629654E-2,5.37074E-2,-7.2884E-2,4.763829E-2,-1.4369197E-2],"categories":[],"categories_nodes":[],"categories_segments":[],"categories_sizes":[],"default_left":[0,0,0,0,0,0,0,0,0,0,0,0,0,0,0,0,0,0,0],"id":14,"left_children":[1,3,5,7,9,-1,-1,11,13,15,17,-1,-1,-1,-1,-1,-1,-1,-1],"loss_changes":[3.7259026E1,3.5078735E1,5.883827E-1,5.4670113E1,9.417323E1,0E0,0E0,3.442702E1,6.401825E1,2.2369972E1,7.975287E1,0E0,0E0,0E0,0E0,0E0,0E0,0E0,0E0],"parents":[2147483647,0,0,1,1,2,2,3,3,4,4,7,7,8,8,9,9,10,10],"right_children":[2,4,6,8,10,-1,-1,12,14,16,18,-1,-1,-1,-1,-1,-1,-1,-1],"split_conditions":[3.570022E0,3.3905774E-2,-4.4204563E-2,1.0589006E0,-2.1537739E-1,8.396102E-2,3.5004694E-2,-2.2062523E0,-8.2351774E-1,-3.5484853E0,-8.3152527E-1,-7.362631E-2,2.79093E-2,1.7348928E-2,-6.629654E-2,5.37074E-2,-7.2884E-2,4.763829E-2,-1.4369197E-2],"split_indices":[36,6,35,29,50,0,0,34,36,21,23,0,0,0,0,0,0,0,0],"split_type":[0,0,0,0,0,0,0,0,0,0,0,0,0,0,0,0,0,0,0],"sum_hessian":[6.741706E2,6.5897644E2,1.5194142E1,3.3464484E2,3.243316E2,1.2362457E1,2.8316848E0,2.4413458E2,9.0510254E1,6.172059E1,2.62611E2,7.714511E0,2.3642006E2,4.9457718E1,4.1052536E1,3.0092058E0,5.871138E1,6.9801315E1,1.928097E2],"tree_param":{"num_deleted":"0","num_feature":"51","num_nodes":"19","size_leaf_vector":"1"}},{"base_weights":[1.7982943E-2,-1.2564367E-1,4.629632E-1,-2.9513E-1,2.9899645E-1,7.495193E-1,-4.1731942E-1,3.36485E-1,-4.5045856E-1,6.1123776E-1,-7.3671824E-1,-7.5837426E-2,8.7394726E-1,-7.872106E-2,4.13029E-1,4.9814686E-2,-2.7671559E-2,-8.571701E-2,-1.6684607E-2,-7.575666E-2,3.7589654E-2,-8.7913305E-2,4.2251106E-2,4.8361342E-2,-6.752481E-2,-7.434804E-2,4.4836897E-2],"categories":[],"categories_nodes":[],"categories_segments":[],"categories_sizes":[],"default_left":[0,0,0,0,0,0,0,0,0,0,0,0,0,0,0,0,0,0,0,0,0,0,0,0,0,0,0],"id":15,"left_children":[1,3,5,7,9,11,13,15,17,19,21,-1,23,-1,25,-1,-1,-1,-1,-1,-1,-1,-1,-1,-1,-1,-1],"loss_changes":[4.267151E1,3.642266E1,4.1407E1,3.5601357E1,4.7185516E1,3.608329E1,3.9707123E1,4.2765366E1,4.2290974E1,3.448915E1,5.6309128E1,0E0,2.5682594E1,0E0,2.3812296E1,0E0,0E0,0E0,0E0,0E0,0E0,0E0,0E0,0E0,0E0,0E0,0E0],"parents":[2147483647,0,0,1,1,2,2,3,3,4,4,5,5,6,6,7,7,8,8,9,9,10,10,12,12,14,14],"right_children":[2,4,6,8,10,12,14,16,18,20,22,-1,24,-1,26,-1,-1,-1,-1,-1,-1,-1,-1,-1,-1,-1,-1],"split_conditions":[8.649904E-1,1.3822079E0,4.9447257E-2,-9.54966E-1,3.575548E-1,-7.538689E-1,9.028714E-2,-1.941079E-2,-6.065928E-1,-4.692569E-1,1.962516E0,-7.5837426E-2,1.8551797E0,-7.872106E-2,5.5248555E-2,4.9814686E-2,-2.7671559E-2,-8.571701E-2,-1.6684607E-2,-7.575666E-2,3.7589654E-2,-8.7913305E-2,4.2251106E-2,4.8361342E-2,-6.752481E-2,-7.434804E-2,4.4836897E-2],"split_indices":[33,2,40,11,48,48,28,40,11,48,27,0,18,0,36,0,0,0,0,0,0,0,0,0,0,0,0],"split_type":[0,0,0,0,0,0,0,0,0,0,0,0,0,0,0,0,0,0,0,0,0,0,0,0,0,0,0],"sum_hessian":[6.6576056E2,5.0385013E2,1.6191045E2,3.6033487E2,1.4351524E2,1.2226001E2,3.9650436E1,7.089343E1,2.8944144E2,1.105862E2,3.2929054E1,5.7808447E0,1.16479164E2,1.6191402E1,2.3459036E1,4.06413E1,3.0252132E1,2.3321997E1,2.6611945E2,6.250269E0,1.0433592E2,1.9939661E1,1.2989391E1,1.12333755E2,4.145409E0,4.339514E0,1.9119522E1],"tree_param":{"num_deleted":"0","num_feature":"51","num_nodes":"27","size_leaf_vector":"1"}},{"base_weights":[8.720365E-2,-1.2144643E0,1.3166894E-1,6.68663E-2,-8.0193914E-2,2.0184837E-1,-7.766443E-1,2.4063896E-1,-1.0605677E0,-1.4070722E0,1.4062601E0,5.194713E-3,3.0693525E-2,-7.292626E-2,5.6621578E-2,-8.081308E-2,3.261369E-2,7.830124E-2,3.422722E-2],"categories":[],"categories_nodes":[],"categories_segments":[],"categories_sizes":[],"default_left":[0,0,0,0,0,0,0,0,0,0,0,0,0,0,0,0,0,0,0],"id":16,"left_children":[1,3,5,-1,-1,7,9,11,13,15,17,-1,-1,-1,-1,-1,-1,-1,-1],"loss_changes":[3.9331974E1,2.4457024E1,4.193125E1,0E0,0E0,3.008423E1,6.694529E1,3.013947E1,1.7660738E1,1.7049423E1,2.054367E-1,0E0,0E0,0E0,0E0,0E0,0E0,0E0,0E0],"parents":[2147483647,0,0,1,1,2,2,5,5,6,6,7,7,8,8,9,9,10,10],"right_children":[2,4,6,-1,-1,8,10,12,14,16,18,-1,-1,-1,-1,-1,-1,-1,-1],"split_conditions":[-1.5580359E0,-2.5970845E0,1.6481835E0,6.68663E-2,-8.0193914E-2,2.8709054E0,3.1398902E0,6.113209E-1,2.513527E0,2.5441105E0,1.6365914E0,5.194713E-3,3.0693525E-2,-7.292626E-2,5.6621578E-2,-8.081308E-2,3.261369E-2,7.830124E-2,3.422722E-2],"split_indices":[20,1,23,0,0,19,36,24,3,21,1,0,0,0,0,0,0,0,0],"split_type":[0,0,0,0,0,0,0,0,0,0,0,0,0,0,0,0,0,0,0],"sum_hessian":[6.75792E2,2.1453512E1,6.543385E2,2.518147E0,1.8935364E1,6.0813E2,4.620846E1,5.9078613E2,1.7343857E1,3.612957E1,1.0078892E1,4.3330872E2,1.5747743E2,1.4963407E1,2.38045E0,3.2993256E1,3.1363142E0,7.294303E0,2.7845886E0],"tree_param":{"num_deleted":"0","num_feature":"51","num_nodes":"19","size_leaf_vector":"1"}},{"base_weights":[2.773722E-2,-7.909479E-2,6.597177E-2,9.7046934E-2,-7.869419E-2,-4.7030434E-1,1.8671235E-1,-5.8932792E-2,8.521977E-3,-7.6764524E-2,1.1745356E-2],"categories":[],"categories_nodes":[],"categories_segments":[],"categories_sizes":[],"default_left":[0,0,0,0,0,0,0,0,0,0,0],"id":17,"left_children":[1,-1,3,5,-1,7,9,-1,-1,-1,-1],"loss_changes":[4.058594E1,0E0,3.294314E1,3.2261368E1,0E0,3.950441E1,4.574439E1,0E0,0E0,0E0,0E0],"parents":[2147483647,0,0,2,2,3,3,5,5,6,6],"right_children":[2,-1,4,6,-1,8,10,-1,-1,-1,-1],"split_conditions":[-2.0906854E0,-7.909479E-2,1.8333532E0,-9.6391565E-1,-7.869419E-2,2.7887264E-1,-3.0214665E0,-5.8932792E-2,8.521977E-3,-7.6764524E-2,1.1745356E-2],"split_indices":[27,0,35,47,0,38,31,0,0,0,0],"split_type":[0,0,0,0,0,0,0,0,0,0,0],"sum_hessian":[6.567709E2,1.4301923E1,6.4246893E2,6.31444E2,1.1025006E1,8.559607E1,5.458479E2,4.0254562E1,4.5341507E1,1.4020986E1,5.318269E2],"tree_param":{"num_deleted":"0","num_feature":"51","num_nodes":"11","size_leaf_vector":"1"}},{"base_weights":[8.543165E-2,-7.698273E-2,1.15404874E-1,-1.1759759E-2,4.859508E-1,4.739341E-2,-7.52735E-2,7.474923E-1,-4.1274852E-1,-7.4727857E-3,2.3538113E-2,-4.1426793E-2,4.4718724E-2,2.2575358E-2,-8.097496E-2],"categories":[],"categories_nodes":[],"categories_segments":[],"categories_sizes":[],"default_left":[0,0,0,0,0,0,0,0,0,0,0,0,0,0,0],"id":18,"left_children":[1,-1,3,5,7,9,-1,11,13,-1,-1,-1,-1,-1,-1],"loss_changes":[3.3808372E1,0E0,3.1994122E1,4.4815052E1,4.1082954E1,4.0746197E1,0E0,3.1928505E1,4.2186695E1,0E0,0E0,0E0,0E0,0E0,0E0],"parents":[2147483647,0,0,2,2,3,3,4,4,5,5,7,7,8,8],"right_children":[2,-1,4,6,8,10,-1,12,14,-1,-1,-1,-1,-1,-1],"split_conditions":[-1.9088216E0,-7.698273E-2,8.649904E-1,1.740301E0,4.9447257E-2,1.2096372E0,-7.52735E-2,-6.720442E-1,2.4489705E-1,-7.4727857E-3,2.3538113E-2,-4.1426793E-2,4.4718724E-2,2.2575358E-2,-8.097496E-2],"split_indices":[2,0,33,23,40,23,0,48,39,0,0,0,0,0,0],"split_type":[0,0,0,0,0,0,0,0,0,0,0,0,0,0,0],"sum_hessian":[6.894398E2,1.1573635E1,6.778662E2,5.0539282E2,1.7247337E2,4.870723E2,1.8320524E1,1.3372475E2,3.8748634E1,3.3292352E2,1.5414877E2,1.1004705E1,1.2272004E2,2.2943039E1,1.58055935E1],"tree_param":{"num_deleted":"0","num_feature":"51","num_nodes":"15","size_leaf_vector":"1"}},{"base_weights":[4.869965E-2,9.33396E-2,-1.253671E0,1.3261427E-1,-7.072561E-2,-7.984673E-2,4.782753E-2,1.638682E-1,-7.852079E-2,-4.7134157E-2,1.0487381E-2],"categories":[],"categories_nodes":[],"categories_segments":[],"categories_sizes":[],"default_left":[0,0,0,0,0,0,0,0,0,0,0],"id":19,"left_children":[1,3,5,7,-1,-1,-1,9,-1,-1,-1],"loss_changes":[3.9099445E1,3.8635117E1,1.8438923E1,3.398483E1,0E0,0E0,0E0,3.1833637E1,0E0,0E0,0E0],"parents":[2147483647,0,0,1,1,2,2,3,3,7,7],"right_children":[2,4,6,8,-1,-1,-1,10,-1,-1,-1],"split_conditions":[1.975087E0,2.8709054E0,8.049828E-1,2.6213496E0,-7.072561E-2,-7.984673E-2,4.782753E-2,-1.7026013E0,-7.852079E-2,-4.7134157E-2,1.0487381E-2],"split_indices":[45,19,49,30,0,0,0,4,0,0,0],"split_type":[0,0,0,0,0,0,0,0,0,0,0],"sum_hessian":[6.695182E2,6.482279E2,2.1290272E1,6.326612E2,1.5566732E1,1.866841E1,2.6218622E0,6.2214734E2,1.051384E1,2.3990128E1,5.981572E2],"tree_param":{"num_deleted":"0","num_feature":"51","num_nodes":"11","size_leaf_vector":"1"}},{"base_weights":[2.3478765E-2,-1.1259194E-1,4.4573128E-1,-3.595694E-2,-1.2520429E0,7.304982E-1,-5.1731575E-1,-1.4918406E-1,8.2405365E-1,6.584676E-2,-7.582798E-2,9.2222416E-1,-5.836226E-1,-7.83174E-2,6.637108E-1,4.215138E-2,-1.3368762E-2,4.915641E-2,-6.844016E-2,-6.418079E-2,5.052925E-2,3.9364666E-2,-7.730487E-2,-6.2908724E-2,5.904646E-2],"categories":[],"categories_nodes":[],"categories_segments":[],"categories_sizes":[],"default_left":[0,0,0,0,0,0,0,0,0,0,0,0,0,0,0,0,0,0,0,0,0,0,0,0,0],"id":20,"left_children":[1,3,5,7,9,11,13,15,17,-1,-1,19,21,-1,23,-1,-1,-1,-1,-1,-1,-1,-1,-1,-1],"loss_changes":[3.846536E1,4.4179222E1,4.5120262E1,4.643184E1,2.3664837E1,3.2367264E1,4.789348E1,4.9606262E1,2.0698978E1,0E0,0E0,2.2860733E1,2.3248352E1,0E0,1.9867622E1,0E0,0E0,0E0,0E0,0E0,0E0,0E0,0E0,0E0,0E0],"parents":[2147483647,0,0,1,1,2,2,3,3,4,4,5,5,6,6,7,7,8,8,11,11,12,12,14,14],"right_children":[2,4,6,8,10,12,14,16,18,-1,-1,20,22,-1,24,-1,-1,-1,-1,-1,-1,-1,-1,-1,-1],"split_conditions":[8.649904E-1,1.6662349E0,4.9447257E-2,1.7027379E0,-1.7737254E0,8.304098E-1,3.2652617E-1,-1.7748938E0,8.78253E-1,6.584676E-2,-7.582798E-2,-1.7055353E0,-2.5067645E-1,-7.83174E-2,9.065995E-1,4.215138E-2,-1.3368762E-2,4.915641E-2,-6.844016E-2,-6.418079E-2,5.052925E-2,3.9364666E-2,-7.730487E-2,-6.2908724E-2,5.904646E-2],"split_indices":[33,23,40,26,0,0,49,24,50,0,0,32,45,0,38,0,0,0,0,0,0,0,0,0,0],"split_type":[0,0,0,0,0,0,0,0,0,0,0,0,0,0,0,0,0,0,0,0,0,0,0,0,0],"sum_hessian":[6.675993E2,5.054512E2,1.6214809E2,4.7456537E2,3.0885847E1,1.25330215E2,3.681788E1,4.2008447E2,5.4480873E1,2.5118809E0,2.8373966E1,1.0963329E2,1.5696921E1,1.9325756E1,1.7492123E1,4.4060986E1,3.760235E2,5.1310375E1,3.1704974E0,3.7015224E0,1.0593177E2,6.5497274E0,9.147194E0,3.4054692E0,1.4086653E1],"tree_param":{"num_deleted":"0","num_feature":"51","num_nodes":"25","size_leaf_vector":"1"}},{"base_weights":[2.1767331E-2,6.508557E-2,-1.1068008E0,9.312386E-2,-7.464841E-2,7.000243E-2,-7.314752E-2,-9.1935617E-1,1.3508007E-1,-7.637608E-2,3.9588485E-2,8.540652E-3,-6.820379E-2],"categories":[],"categories_nodes":[],"categories_segments":[],"categories_sizes":[],"default_left":[0,0,0,0,0,0,0,0,0,0,0,0,0],"id":21,"left_children":[1,3,5,7,-1,-1,-1,9,11,-1,-1,-1,-1],"loss_changes":[3.208806E1,2.7731775E1,2.3710777E1,2.6521278E1,0E0,0E0,0E0,2.707354E1,3.2243305E1,0E0,0E0,0E0,0E0],"parents":[2147483647,0,0,1,1,2,2,3,3,7,7,8,8],"right_children":[2,4,6,8,-1,-1,-1,10,12,-1,-1,-1,-1],"split_conditions":[1.740301E0,1.8803195E0,-2.0755398E0,-1.754227E0,-7.464841E-2,7.000243E-2,-7.314752E-2,2.2306674E0,2.8709054E0,-7.637608E-2,3.9588485E-2,8.540652E-3,-6.820379E-2],"split_indices":[23,35,7,4,0,0,0,22,19,0,0,0,0],"split_type":[0,0,0,0,0,0,0,0,0,0,0,0,0],"sum_hessian":[6.5389075E2,6.306275E2,2.3263275E1,6.2040314E2,1.0224366E1,2.5292733E0,2.0734001E1,2.3853846E1,5.9654926E2,1.7678045E1,6.1758003E0,5.8352673E2,1.3022533E1],"tree_param":{"num_deleted":"0","num_feature":"51","num_nodes":"13","size_leaf_vector":"1"}},{"base_weights":[3.4320787E-2,6.652189E-2,-7.75211E-2,-1.1606019E0,1.0899189E-1,6.663065E-2,-7.783595E-2,2.0231919E-1,-4.079091E-1,1.1667098E-2,-7.713037E-2,4.6413492E-2,-3.6882844E-2],"categories":[],"categories_nodes":[],"categories_segments":[],"categories_sizes":[],"default_left":[0,0,0,0,0,0,0,0,0,0,0,0,0],"id":22,"left_children":[1,3,-1,5,7,-1,-1,9,11,-1,-1,-1,-1],"loss_changes":[3.3730164E1,3.383486E1,0E0,2.3527481E1,3.028492E1,0E0,0E0,2.91038E1,4.3018745E1,0E0,0E0,0E0,0E0],"parents":[2147483647,0,0,1,1,3,3,4,4,7,7,8,8],"right_children":[2,4,-1,6,8,-1,-1,10,12,-1,-1,-1,-1],"split_conditions":[2.6213496E0,-1.5580359E0,-7.75211E-2,-2.5970845E0,1.1565925E0,6.663065E-2,-7.783595E-2,1.9175345E0,-1.3691307E0,1.1667098E-2,-7.713037E-2,4.6413492E-2,-3.6882844E-2],"split_indices":[30,20,0,1,35,0,0,30,20,0,0,0,0],"split_type":[0,0,0,0,0,0,0,0,0,0,0,0,0],"sum_hessian":[6.5795984E2,6.4579565E2,1.216419E1,2.0722225E1,6.250734E2,2.5168214E0,1.8205404E1,5.299912E2,9.508217E1,5.2158435E2,8.406885E0,1.8460964E1,7.662121E1],"tree_param":{"num_deleted":"0","num_feature":"51","num_nodes":"13","size_leaf_vector":"1"}},{"base_weights":[3.147898E-2,1.0167808E-1,-6.091193E-1,2.2007719E-1,-3.1370077E-1,-7.877747E-2,1.4240743E-1,-4.383001E-2,5.426121E-1,-8.5861266E-2,1.2423683E-1,7.3828053E-1,-7.737954E-2,-5.0547767E-2,9.902431E-3,3.4002136E-2,-5.632906E-2,-3.2036304E-2,3.4542896E-2,5.292375E-2,-6.968896E-2],"categories":[],"categories_nodes":[],"categories_segments":[],"categories_sizes":[],"default_left":[0,0,0,0,0,0,0,0,0,0,0,0,0,0,0,0,0,0,0,0,0],"id":23,"left_children":[1,3,5,7,9,-1,11,13,15,-1,17,19,-1,-1,-1,-1,-1,-1,-1,-1,-1],"loss_changes":[2.999212E1,2.9611374E1,4.8069393E1,3.986287E1,8.236453E1,0E0,3.9384254E1,6.0632847E1,4.9100037E1,0E0,4.5001045E1,2.1104057E1,0E0,0E0,0E0,0E0,0E0,0E0,0E0,0E0,0E0],"parents":[2147483647,0,0,1,1,2,2,3,3,4,4,6,6,7,7,8,8,10,10,11,11],"right_children":[2,4,6,8,10,-1,12,14,16,-1,18,20,-1,-1,-1,-1,-1,-1,-1,-1,-1],"split_conditions":[1.7851219E0,1.2008219E0,7.1668684E-1,-1.2833326E-1,3.6371222E-1,-7.877747E-2,6.649025E-1,-6.3951045E-1,1.1596527E0,-8.5861266E-2,-2.8288537E-1,4.3383238E-1,-7.737954E-2,-5.0547767E-2,9.902431E-3,3.4002136E-2,-5.632906E-2,-3.2036304E-2,3.4542896E-2,5.292375E-2,-6.968896E-2],"split_indices":[43,3,3,3,50,0,21,5,5,0,47,30,0,0,0,0,0,0,0,0,0],"split_type":[0,0,0,0,0,0,0,0,0,0,0,0,0,0,0,0,0,0,0,0,0],"sum_hessian":[6.645675E2,5.9969226E2,6.48752E1,4.670384E2,1.326539E2,2.790025E1,3.6974945E1,2.5733978E2,2.0969861E2,3.0853115E1,1.0180079E2,2.7752792E1,9.222155E0,5.08484E1,2.0649138E2,1.9429427E2,1.5404352E1,4.326304E1,5.853775E1,2.4566864E1,3.1859288E0],"tree_param":{"num_deleted":"0","num_feature":"51","num_nodes":"21","size_leaf_vector":"1"}},{"base_weights":[2.7949471E-2,1.2018886E-1,-5.6149983E-1,-1.9838458E-1,3.0643046E-1,2.2699413E-1,-1.0880556E0,7.788402E-1,-4.3841606E-1,5.5553836E-1,-1.1950814E-1,-6.83266E-2,5.753323E-1,-1.37997E0,4.3920553E-1,5.026999E-2,-6.2802374E-2,6.9355066E-3,-4.631012E-2,1.0736209E-2,4.7185224E-2,-8.252058E-2,3.2738752E-3,4.6553567E-2,-6.551538E-2,-7.694622E-2,2.6724061E-2,6.942519E-2,-5.7257265E-2],"categories":[],"categories_nodes":[],"categories_segments":[],"categories_sizes":[],"default_left":[0,0,0,0,0,0,0,0,0,0,0,0,0,0,0,0,0,0,0,0,0,0,0,0,0,0,0,0,0],"id":24,"left_children":[1,3,5,7,9,11,13,15,17,19,21,-1,23,25,27,-1,-1,-1,-1,-1,-1,-1,-1,-1,-1,-1,-1,-1,-1],"loss_changes":[3.5984833E1,3.4000942E1,3.7432186E1,4.9987186E1,3.841165E1,2.1151752E1,2.46246E1,2.066991E1,4.8142082E1,2.998735E1,3.810851E1,0E0,2.1888084E1,1.4659637E1,1.57330065E1,0E0,0E0,0E0,0E0,0E0,0E0,0E0,0E0,0E0,0E0,0E0,0E0,0E0,0E0],"parents":[2147483647,0,0,1,1,2,2,3,3,4,4,5,5,6,6,7,7,8,8,9,9,10,10,12,12,13,13,14,14],"right_children":[2,4,6,8,10,12,14,16,18,20,22,-1,24,26,28,-1,-1,-1,-1,-1,-1,-1,-1,-1,-1,-1,-1,-1,-1],"split_conditions":[1.5873568E0,-2.6479274E-1,-8.2862234E-1,-1.6287063E0,8.7185323E-1,1.0824689E0,1.4298114E0,1.667375E0,-6.075843E-1,2.1726319E-1,-3.6950487E-1,-6.83266E-2,3.8714552E-1,1.8757586E0,2.6375213E-1,5.026999E-2,-6.2802374E-2,6.9355066E-3,-4.631012E-2,1.0736209E-2,4.7185224E-2,-8.252058E-2,3.2738752E-3,4.6553567E-2,-6.551538E-2,-7.694622E-2,2.6724061E-2,6.942519E-2,-5.7257265E-2],"split_indices":[19,26,39,24,3,20,12,5,7,21,49,0,12,26,37,0,0,0,0,0,0,0,0,0,0,0,0,0,0],"split_type":[0,0,0,0,0,0,0,0,0,0,0,0,0,0,0,0,0,0,0,0,0,0,0,0,0,0,0,0,0],"sum_hessian":[6.596042E2,5.7104144E2,8.856276E1,2.1065047E2,3.6039096E2,3.5688988E1,5.287377E1,4.109565E1,1.6955482E2,2.2720633E2,1.3318465E2,5.8776727E0,2.9811314E1,4.4470337E1,8.403437E0,3.743378E1,3.6618705E0,7.799288E1,9.156194E1,1.2180945E2,1.0539687E2,1.3504265E1,1.1968038E2,2.5505714E1,4.3055997E0,4.1242203E1,3.2281337E0,5.3321667E0,3.07127E0],"tree_param":{"num_deleted":"0","num_feature":"51","num_nodes":"29","size_leaf_vector":"1"}},{"base_weights":[-7.4235305E-2,-1.1292501E-1,7.293876E-2,1.9905666E-2,-5.72351E-1,3.1813446E-1,-3.3145928E-1,7.284954E-1,-7.7826685E-1,2.4292901E-2,-2.0514566E-2,-3.6457848E-2,1.3255196E-2,-6.900035E-2,6.578059E-2,-5.6753416E-2,2.061518E-2],"categories":[],"categories_nodes":[],"categories_segments":[],"categories_sizes":[],"default_left":[0,0,0,0,0,0,0,0,0,0,0,0,0,0,0,0,0],"id":25,"left_children":[1,3,-1,5,7,9,11,13,15,-1,-1,-1,-1,-1,-1,-1,-1],"loss_changes":[3.781885E1,3.7856678E1,0E0,5.06161E1,3.783247E1,3.2116196E1,5.2813477E1,2.5991058E1,5.1695E1,0E0,0E0,0E0,0E0,0E0,0E0,0E0,0E0],"parents":[2147483647,0,0,1,1,3,3,4,4,5,5,6,6,7,7,8,8],"right_children":[2,4,-1,6,8,10,12,14,16,-1,-1,-1,-1,-1,-1,-1,-1],"split_conditions":[3.570022E0,1.2008219E0,7.293876E-2,7.037971E-2,-1.5246005E0,5.6151724E-1,5.2428025E-1,-1.6898309E0,2.737068E0,2.4292901E-2,-2.0514566E-2,-3.6457848E-2,1.3255196E-2,-6.900035E-2,6.578059E-2,-5.6753416E-2,2.061518E-2],"split_indices":[36,3,0,6,41,25,42,7,25,0,0,0,0,0,0,0,0],"split_type":[0,0,0,0,0,0,0,0,0,0,0,0,0,0,0,0,0],"sum_hessian":[6.338512E2,6.1915155E2,1.4699644E1,4.81031E2,1.3812051E2,2.602406E2,2.207904E2,1.8528885E1,1.1959164E2,2.1180458E2,4.8436024E1,1.3234236E2,8.844804E1,3.7415228E0,1.4787362E1,9.205141E1,2.7540228E1],"tree_param":{"num_deleted":"0","num_feature":"51","num_nodes":"17","size_leaf_vector":"1"}},{"base_weights":[7.127839E-2,2.1018861E-1,-3.2481766E-1,-1.2585185E-1,3.9396197E-1,-7.283802E-1,4.103202E-1,1.8887196E-1,-9.829875E-1,-7.029894E-2,4.3396556E-1,6.8635756E-1,-9.915567E-1,-7.5847656E-2,7.09213E-1,2.5727177E-2,-6.374572E-2,7.353964E-2,-6.557535E-2,-6.897991E-2,2.359278E-2,-6.569213E-2,6.3231215E-2,-6.6831104E-2,6.996856E-4,4.7205314E-2,-6.634011E-2],"categories":[],"categories_nodes":[],"categories_segments":[],"categories_sizes":[],"default_left":[0,0,0,0,0,0,0,0,0,0,0,0,0,0,0,0,0,0,0,0,0,0,0,0,0,0,0],"id":26,"left_children":[1,3,5,7,9,11,13,15,17,-1,19,21,23,-1,25,-1,-1,-1,-1,-1,-1,-1,-1,-1,-1,-1,-1],"loss_changes":[3.6028305E1,2.9968487E1,5.075856E1,4.6594738E1,2.3178917E1,4.1698162E1,3.6167946E1,6.104262E1,3.930443E1,0E0,2.1773357E1,2.2331041E1,3.2390503E1,0E0,2.6801018E1,0E0,0E0,0E0,0E0,0E0,0E0,0E0,0E0,0E0,0E0,0E0,0E0],"parents":[2147483647,0,0,1,1,2,2,3,3,4,4,5,5,6,6,7,7,8,8,10,10,11,11,12,12,14,14],"right_children":[2,4,6,8,10,12,14,16,18,-1,20,22,24,-1,26,-1,-1,-1,-1,-1,-1,-1,-1,-1,-1,-1,-1],"split_conditions":[6.289184E-1,-5.3592956E-1,1.0677668E0,-1.0686129E0,-1.9017296E0,-1.7748938E0,-2.5835523E-1,2.815564E-1,-3.0084612E0,-7.029894E-2,-2.4768918E0,8.957656E-1,1.3822079E0,-7.5847656E-2,1.394487E0,2.5727177E-2,-6.374572E-2,7.353964E-2,-6.557535E-2,-6.897991E-2,2.359278E-2,-6.569213E-2,6.3231215E-2,-6.6831104E-2,6.996856E-4,4.7205314E-2,-6.634011E-2],"split_indices":[12,5,28,5,0,24,21,24,36,0,39,42,2,0,21,0,0,0,0,0,0,0,0,0,0,0,0],"split_type":[0,0,0,0,0,0,0,0,0,0,0,0,0,0,0,0,0,0,0,0,0,0,0,0,0,0,0],"sum_hessian":[6.5255975E2,4.8347516E2,1.6908458E2,1.7103773E2,3.1243744E2,1.0916588E2,5.9918697E1,1.2567275E2,4.5364983E1,6.0505323E0,3.063869E2,1.687018E1,9.22957E1,7.497737E0,5.242096E1,1.0333146E2,2.234129E1,4.9459095E0,4.0419075E1,5.5455313E0,3.0084137E2,3.498159E0,1.3372021E1,6.8470184E1,2.3825518E1,4.747958E1,4.9413815E0],"tree_param":{"num_deleted":"0","num_feature":"51","num_nodes":"27","size_leaf_vector":"1"}},{"base_weights":[5.163444E-2,2.781731E-1,-1.5907061E-1,-6.402737E-1,4.2496783E-1,7.831859E-1,-2.98469E-1,-1.2333721E0,4.9601856E-1,-9.7939306E-1,5.114984E-1,1.0950257E0,-6.911831E-2,-1.3198535E0,-1.5245384E-1,-7.415645E-2,5.6913327E-2,6.4088985E-2,-6.070406E-2,-7.603559E-2,7.15262E-2,2.8645191E-2,-6.9104515E-2,6.618647E-2,-6.2483888E-2,6.157979E-2,-7.6716244E-2,-2.2525504E-2,1.8735351E-2],"categories":[],"categories_nodes":[],"categories_segments":[],"categories_sizes":[],"default_left":[0,0,0,0,0,0,0,0,0,0,0,0,0,0,0,0,0,0,0,0,0,0,0,0,0,0,0,0,0],"id":27,"left_children":[1,3,5,7,9,11,13,15,17,19,21,23,-1,25,27,-1,-1,-1,-1,-1,-1,-1,-1,-1,-1,-1,-1,-1,-1],"loss_changes":[3.1801275E1,4.354648E1,4.5593334E1,3.0689514E1,3.4203526E1,3.1754683E1,4.4771984E1,1.922773E1,2.308165E1,2.362172E1,3.1244827E1,2.294434E1,0E0,2.2457817E1,4.1801525E1,0E0,0E0,0E0,0E0,0E0,0E0,0E0,0E0,0E0,0E0,0E0,0E0,0E0,0E0],"parents":[2147483647,0,0,1,1,2,2,3,3,4,4,5,5,6,6,7,7,8,8,9,9,10,10,11,11,13,13,14,14],"right_children":[2,4,6,8,10,12,14,16,18,20,22,24,-1,26,28,-1,-1,-1,-1,-1,-1,-1,-1,-1,-1,-1,-1,-1,-1],"split_conditions":[-9.194684E-2,-8.114954E-1,-1.7748938E0,9.4511265E-1,-1.4931467E0,1.3856964E-1,-1.1211184E0,1.8633095E0,-7.0346035E-2,7.189582E-1,1.6966424E0,6.9090015E-1,-6.911831E-2,-4.439789E0,3.8452145E-1,-7.415645E-2,5.6913327E-2,6.4088985E-2,-6.070406E-2,-7.603559E-2,7.15262E-2,2.8645191E-2,-6.9104515E-2,6.618647E-2,-6.2483888E-2,6.157979E-2,-7.6716244E-2,-2.2525504E-2,1.8735351E-2],"split_indices":[6,47,24,42,0,26,13,49,18,14,23,7,0,25,33,0,0,0,0,0,0,0,0,0,0,0,0,0,0],"split_type":[0,0,0,0,0,0,0,0,0,0,0,0,0,0,0,0,0,0,0,0,0,0,0,0,0,0,0,0,0],"sum_hessian":[6.643077E2,3.199715E2,3.443362E2,4.363015E1,2.7634134E2,4.3781178E1,3.0055505E2,2.8610956E1,1.5019193E1,1.5439832E1,2.609015E2,3.8702377E1,5.0788016E0,3.658709E1,2.6396796E2,2.6223957E1,2.387E0,1.0462378E1,4.556815E0,1.2909141E1,2.5306904E0,2.5338226E2,7.5192466E0,3.5659557E1,3.0428174E0,2.469254E0,3.4117832E1,1.687195E2,9.524845E1],"tree_param":{"num_deleted":"0","num_feature":"51","num_nodes":"29","size_leaf_vector":"1"}},{"base_weights":[2.4528546E-2,6.450182E-2,-1.1267658E0,1.5544827E-1,-4.231286E-1,-7.517879E-2,5.4173436E-2,-4.5094407E-1,2.5431556E-1,-1.0514655E0,3.7612277E-1,3.0850438E-2,-3.9859887E-2,1.762109E-2,-2.098172E-2,-8.1275545E-2,-2.168313E-2,-2.2106973E-2,5.2307516E-2],"categories":[],"categories_nodes":[],"categories_segments":[],"categories_sizes":[],"default_left":[0,0,0,0,0,0,0,0,0,0,0,0,0,0,0,0,0,0,0],"id":28,"left_children":[1,3,5,7,9,-1,-1,11,13,15,17,-1,-1,-1,-1,-1,-1,-1,-1],"loss_changes":[2.9273695E1,2.7303125E1,1.9406384E1,3.1191566E1,4.901335E1,0E0,0E0,2.7496052E1,2.96588E1,1.8610424E1,2.4227535E1,0E0,0E0,0E0,0E0,0E0,0E0,0E0,0E0],"parents":[2147483647,0,0,1,1,2,2,3,3,4,4,7,7,8,8,9,9,10,10],"right_children":[2,4,6,8,10,-1,-1,12,14,16,18,-1,-1,-1,-1,-1,-1,-1,-1],"split_conditions":[2.1671104E0,1.1565925E0,4.294561E0,-9.6391565E-1,4.5923504E-1,-7.517879E-2,5.4173436E-2,-6.404873E-1,9.16614E-1,2.2692319E-2,5.607093E-1,3.0850438E-2,-3.9859887E-2,1.762109E-2,-2.098172E-2,-8.1275545E-2,-2.168313E-2,-2.2106973E-2,5.2307516E-2],"split_indices":[30,35,18,47,30,0,0,22,39,39,24,0,0,0,0,0,0,0,0],"split_type":[0,0,0,0,0,0,0,0,0,0,0,0,0,0,0,0,0,0,0],"sum_hessian":[6.33515E2,6.1316956E2,2.0345451E1,5.173596E2,9.5809944E1,1.7655235E1,2.6902158E0,7.202719E1,4.4533246E2,5.3463604E1,4.234634E1,1.7443647E1,5.458354E1,3.891599E2,5.6172546E1,2.6867731E1,2.6595871E1,1.9217428E1,2.312891E1],"tree_param":{"num_deleted":"0","num_feature":"51","num_nodes":"19","size_leaf_vector":"1"}},{"base_weights":[3.0670841E-3,-3.0911837E-2,6.902247E-2,2.1659965E-2,-9.566703E-1,-1.5227985E-1,2.9648417E-1,3.4277526E-1,-7.064205E-2,-1.4733862E-3,-5.9901323E-2,-7.508926E-2,2.0316543E-2,6.213025E-2,-5.4111935E-2],"categories":[],"categories_nodes":[],"categories_segments":[],"categories_sizes":[],"default_left":[0,0,0,0,0,0,0,0,0,0,0,0,0,0,0],"id":29,"left_children":[1,3,-1,5,7,9,11,13,-1,-1,-1,-1,-1,-1,-1],"loss_changes":[2.9737226E1,3.0203903E1,0E0,2.8144983E1,2.0251968E1,4.628279E1,4.568345E1,1.3487566E1,0E0,0E0,0E0,0E0,0E0,0E0,0E0],"parents":[2147483647,0,0,1,1,3,3,4,4,5,5,6,6,7,7],"right_children":[2,4,-1,6,8,10,12,14,-1,-1,-1,-1,-1,-1,-1],"split_conditions":[3.570022E0,1.6662349E0,6.902247E-2,2.7186123E-1,-1.8100853E0,1.327934E0,-2.1853495E0,-1.042051E0,-7.064205E-2,-1.4733862E-3,-5.9901323E-2,-7.508926E-2,2.0316543E-2,6.213025E-2,-5.4111935E-2],"split_indices":[36,23,0,24,46,3,34,0,0,0,0,0,0,0,0],"split_type":[0,0,0,0,0,0,0,0,0,0,0,0,0,0,0],"sum_hessian":[6.3347235E2,6.1917535E2,1.4297005E1,5.8682733E2,3.234804E1,3.5964758E2,2.2717973E2,8.469745E0,2.3878296E1,3.227698E2,3.68778E1,1.2348828E1,2.148309E2,5.2699947E0,3.1997504E0],"tree_param":{"num_deleted":"0","num_feature":"51","num_nodes":"15","size_leaf_vector":"1"}},{"base_weights":[2.4654973E-2,-1.1502038E-1,3.5047895E-1,-9.975552E-1,-2.650607E-2,6.824772E-1,-1.8112588E-1,3.267729E-1,-7.882178E-2,2.1802013E-1,-3.2845014E-1,8.625376E-1,-8.3615977E-1,-1.2021252E0,2.8878108E-1,4.5582853E-2,-6.0717206E-2,-4.450293E-3,3.4151733E-2,-3.180356E-2,1.759118E-2,-6.1863523E-2,4.730575E-2,7.050046E-2,-7.5341724E-2,-7.550277E-2,4.0511813E-2,-7.1446106E-2,3.284627E-2],"categories":[],"categories_nodes":[],"categories_segments":[],"categories_sizes":[],"default_left":[0,0,0,0,0,0,0,0,0,0,0,0,0,0,0,0,0,0,0,0,0,0,0,0,0,0,0,0,0],"id":30,"left_children":[1,3,5,7,9,11,13,15,-1,17,19,21,23,25,27,-1,-1,-1,-1,-1,-1,-1,-1,-1,-1,-1,-1,-1,-1],"loss_changes":[2.923466E1,3.5107986E1,3.4139236E1,3.192419E1,3.0328209E1,3.322007E1,3.6274094E1,1.308623E1,0E0,3.2473938E1,3.8680378E1,1.9903687E1,2.1867657E1,1.5968758E1,3.3876873E1,0E0,0E0,0E0,0E0,0E0,0E0,0E0,0E0,0E0,0E0,0E0,0E0,0E0,0E0],"parents":[2147483647,0,0,1,1,2,2,3,3,4,4,5,5,6,6,7,7,9,9,10,10,11,11,12,12,13,13,14,14],"right_children":[2,4,6,8,10,12,14,16,-1,18,20,22,24,26,28,-1,-1,-1,-1,-1,-1,-1,-1,-1,-1,-1,-1,-1,-1],"split_conditions":[5.724958E-1,-9.3700784E-1,3.671294E-2,-1.5055808E0,1.543827E-1,1.0678933E0,-1.1456626E-1,1.685604E-1,-7.882178E-2,-5.772328E-1,1.3848736E0,-1.9703742E0,5.8639884E-1,1.873236E0,-4.3215156E-1,4.5582853E-2,-6.0717206E-2,-4.450293E-3,3.4151733E-2,-3.180356E-2,1.759118E-2,-6.1863523E-2,4.730575E-2,7.050046E-2,-7.5341724E-2,-7.550277E-2,4.0511813E-2,-7.1446106E-2,3.284627E-2],"split_indices":[21,45,0,25,6,35,42,34,0,6,4,22,21,44,26,0,0,0,0,0,0,0,0,0,0,0,0,0,0],"split_type":[0,0,0,0,0,0,0,0,0,0,0,0,0,0,0,0,0,0,0,0,0,0,0,0,0,0,0,0,0],"sum_hessian":[6.404989E2,4.4876694E2,1.9173198E2,3.9970432E1,4.087965E2,1.1784902E2,7.388295E1,1.2289882E1,2.7680552E1,2.2602805E2,1.8276848E2,1.0574336E2,1.21056595E1,2.279546E1,5.108749E1,9.20489E0,3.0849922E0,1.3662798E2,8.940006E1,1.2590085E2,5.6867626E1,3.5193343E0,1.0222403E2,2.5300035E0,9.575656E0,1.9986717E1,2.808743E0,8.508191E0,4.25793E1],"tree_param":{"num_deleted":"0","num_feature":"51","num_nodes":"29","size_leaf_vector":"1"}},{"base_weights":[9.2462696E-2,1.9202156E-1,-3.862352E-1,-7.489372E-2,2.2301579E-1,-8.4076834E-1,6.541568E-1,-3.6034274E-1,3.0317518E-1,-1.3423004E0,-9.97911E-2,8.5424554E-1,-6.0193893E-2,-5.4202266E-2,3.5820752E-2,1.718928E-2,-4.5553237E-2,2.2255078E-2,-8.350142E-2,5.283177E-2,-5.282092E-2,-5.6531895E-2,5.1365104E-2],"categories":[],"categories_nodes":[],"categories_segments":[],"categories_sizes":[],"default_left":[0,0,0,0,0,0,0,0,0,0,0,0,0,0,0,0,0,0,0,0,0,0,0],"id":31,"left_children":[1,3,5,-1,7,9,11,13,15,17,19,21,-1,-1,-1,-1,-1,-1,-1,-1,-1,-1,-1],"loss_changes":[3.1754725E1,2.9191614E1,5.4828934E1,0E0,2.5449667E1,2.971455E1,1.421202E1,5.214837E1,2.3833534E1,2.8754494E1,3.817702E1,1.2359158E1,0E0,0E0,0E0,0E0,0E0,0E0,0E0,0E0,0E0,0E0,0E0],"parents":[2147483647,0,0,1,1,2,2,4,4,5,5,6,6,7,7,8,8,9,9,10,10,11,11],"right_children":[2,4,6,-1,8,10,12,14,16,18,20,22,-1,-1,-1,-1,-1,-1,-1,-1,-1,-1,-1],"split_conditions":[1.0678933E0,-2.1410682E0,1.3471209E0,-7.489372E-2,-1.1211184E0,7.648669E-1,7.951715E-1,1.3775668E0,2.0424445E0,-1.5123905E0,-9.067939E-1,-1.1824956E0,-6.0193893E-2,-5.4202266E-2,3.5820752E-2,1.718928E-2,-4.5553237E-2,2.2255078E-2,-8.350142E-2,5.283177E-2,-5.282092E-2,-5.6531895E-2,5.1365104E-2],"split_indices":[35,5,30,0,13,7,37,44,30,46,6,37,0,0,0,0,0,0,0,0,0,0,0],"split_type":[0,0,0,0,0,0,0,0,0,0,0,0,0,0,0,0,0,0,0,0,0,0,0],"sum_hessian":[6.6373926E2,5.4995856E2,1.13780685E2,9.052672E0,5.409059E2,7.9319115E1,3.446157E1,6.49244E1,4.759815E2,4.681843E1,3.2500687E1,3.159897E1,2.8625998E0,3.882372E1,2.6100681E1,4.612711E2,1.4710396E1,7.198773E0,3.961966E1,1.4666468E1,1.7834217E1,2.0903387E0,2.9508633E1],"tree_param":{"num_deleted":"0","num_feature":"51","num_nodes":"23","size_leaf_vector":"1"}},{"base_weights":[4.220578E-2,-8.9717233E-1,8.961807E-2,-7.577496E-2,1.551497E-1,1.0986611E-1,-7.060546E-2,-6.466172E-2,8.6036086E-1,-5.0806146E-2,3.1283212E-1,-5.2111305E-2,6.452008E-2,5.225532E-2,-6.8013556E-3,-1.1324169E-2,2.5443796E-2],"categories":[],"categories_nodes":[],"categories_segments":[],"categories_sizes":[],"default_left":[0,0,0,0,0,0,0,0,0,0,0,0,0,0,0,0,0],"id":32,"left_children":[1,3,5,-1,7,9,-1,-1,11,13,15,-1,-1,-1,-1,-1,-1],"loss_changes":[2.8354836E1,2.0141243E1,1.8558832E1,0E0,1.3604473E1,1.9521202E1,0E0,0E0,8.565929E0,3.1401686E1,2.8071918E1,0E0,0E0,0E0,0E0,0E0,0E0],"parents":[2147483647,0,0,1,1,2,2,4,4,5,5,8,8,9,9,10,10],"right_children":[2,4,6,-1,8,10,-1,-1,12,14,16,-1,-1,-1,-1,-1,-1],"split_conditions":[-1.539153E0,5.167556E-2,1.9548368E0,-7.577496E-2,5.6721E-1,1.6591445E-1,-7.060546E-2,-6.466172E-2,-1.922007E-1,-1.7748938E0,-9.7682156E-2,-5.2111305E-2,6.452008E-2,5.225532E-2,-6.8013556E-3,-1.1324169E-2,2.5443796E-2],"split_indices":[27,24,9,0,42,33,0,0,1,24,28,0,0,0,0,0,0],"split_type":[0,0,0,0,0,0,0,0,0,0,0,0,0,0,0,0,0],"sum_hessian":[6.338374E2,2.9592833E1,6.0424457E2,1.8362932E1,1.1229901E1,5.971203E2,7.1242332E0,3.4042742E0,7.825627E0,3.3370328E2,2.6341702E2,1.1802799E0,6.645347E0,2.3264626E1,3.1043866E2,7.018451E1,1.9323251E2],"tree_param":{"num_deleted":"0","num_feature":"51","num_nodes":"17","size_leaf_vector":"1"}},{"base_weights":[5.2129682E-2,-7.8532286E-2,7.614914E-2,1.9087043E-1,-2.5562963E-1,-7.4483156E-2,2.3168465E-1,-7.198749E-2,-3.3764727E-2,5.949444E-3,3.6302663E-2,7.972243E-3,-7.2995886E-2],"categories":[],"categories_nodes":[],"categories_segments":[],"categories_sizes":[],"default_left":[0,0,0,0,0,0,0,0,0,0,0,0,0],"id":33,"left_children":[1,-1,3,5,7,-1,9,-1,11,-1,-1,-1,-1],"loss_changes":[2.535387E1,0E0,2.436688E1,3.2947266E1,4.319014E1,0E0,2.5815619E1,0E0,3.8709244E1,0E0,0E0,0E0,0E0],"parents":[2147483647,0,0,2,2,3,3,4,4,6,6,8,8],"right_children":[2,-1,4,6,8,-1,10,-1,12,-1,-1,-1,-1],"split_conditions":[-1.8117862E0,-7.8532286E-2,6.289184E-1,-1.7381722E0,-1.8227763E-1,-7.4483156E-2,1.1332195E0,-7.198749E-2,9.7137153E-1,5.949444E-3,3.6302663E-2,7.972243E-3,-7.2995886E-2],"split_indices":[41,0,12,29,50,0,8,0,21,0,0,0,0],"split_type":[0,0,0,0,0,0,0,0,0,0,0,0,0],"sum_hessian":[6.4639465E2,8.488867E0,6.3790576E2,4.7432132E2,1.6358446E2,1.04047575E1,4.6391656E2,2.4947464E1,1.3863698E2,3.788052E2,8.511137E1,1.22878136E2,1.5758847E1],"tree_param":{"num_deleted":"0","num_feature":"51","num_nodes":"13","size_leaf_vector":"1"}},{"base_weights":[1.5706036E-2,5.4715756E-2,-1.1189699E0,-1.316912E-1,2.7534452E-1,4.2434823E-2,-7.30947E-2,-2.8880704E-2,-1.2492219E0,-4.164487E-1,5.5656344E-1,-1.3347575E-2,2.073091E-2,6.588288E-2,-7.779673E-2,8.4650135E-3,-6.776617E-2,-6.259681E-2,3.0922651E-2],"categories":[],"categories_nodes":[],"categories_segments":[],"categories_sizes":[],"default_left":[0,0,0,0,0,0,0,0,0,0,0,0,0,0,0,0,0,0,0],"id":34,"left_children":[1,3,5,7,9,-1,-1,11,13,15,17,-1,-1,-1,-1,-1,-1,-1,-1],"loss_changes":[2.788944E1,2.5072302E1,1.5371904E1,3.795288E1,5.4531242E1,0E0,0E0,3.2188374E1,2.3962315E1,4.490695E1,2.3033215E1,0E0,0E0,0E0,0E0,0E0,0E0,0E0,0E0],"parents":[2147483647,0,0,1,1,2,2,3,3,4,4,7,7,8,8,9,9,10,10],"right_children":[2,4,6,8,10,-1,-1,12,14,16,18,-1,-1,-1,-1,-1,-1,-1,-1],"split_conditions":[1.6867695E0,1.6591445E-1,-1.9195051E0,1.2121656E0,-9.7682156E-2,4.2434823E-2,-7.30947E-2,4.8081532E-1,-1.9004141E0,-1.09583244E-1,-1.754227E0,-1.3347575E-2,2.073091E-2,6.588288E-2,-7.779673E-2,8.4650135E-3,-6.776617E-2,-6.259681E-2,3.0922651E-2],"split_indices":[35,33,13,42,28,0,0,24,26,18,4,0,0,0,0,0,0,0,0],"split_type":[0,0,0,0,0,0,0,0,0,0,0,0,0,0,0,0,0,0,0],"sum_hessian":[6.27696E2,6.077534E2,1.9942549E1,3.2964383E2,2.7810956E2,2.7408617E0,1.7201687E1,3.0281165E2,2.6832197E1,8.023995E1,1.9786963E2,1.9729922E2,1.05512405E2,2.512127E0,2.432007E1,4.9917126E1,3.0322824E1,5.911081E0,1.9195854E2],"tree_param":{"num_deleted":"0","num_feature":"51","num_nodes":"19","size_leaf_vector":"1"}},{"base_weights":[4.5296576E-2,-6.38461E-2,4.0066493E-1,-2.4150398E-1,3.7135795E-1,5.1319176E-1,-6.735391E-2,-7.676932E-2,-1.6862403E-1,6.242114E-1,-4.787923E-1,6.317278E-1,-6.754222E-2,2.1376304E-2,-1.8181963E-2,-6.981873E-2,3.7826564E-2,3.2775413E-2,-7.7882685E-2,3.557293E-2,-6.598897E-2],"categories":[],"categories_nodes":[],"categories_segments":[],"categories_sizes":[],"default_left":[0,0,0,0,0,0,0,0,0,0,0,0,0,0,0,0,0,0,0,0,0],"id":35,"left_children":[1,3,5,7,9,11,-1,-1,13,15,17,19,-1,-1,-1,-1,-1,-1,-1,-1,-1],"loss_changes":[2.5039627E1,3.8304283E1,3.0520166E1,3.2894966E1,3.1182701E1,3.2498787E1,0E0,0E0,3.898128E1,3.0779003E1,4.2017975E1,2.1997074E1,0E0,0E0,0E0,0E0,0E0,0E0,0E0,0E0,0E0],"parents":[2147483647,0,0,1,1,2,2,3,3,4,4,5,5,8,8,9,9,10,10,11,11],"right_children":[2,4,6,8,10,12,-1,-1,14,16,18,20,-1,-1,-1,-1,-1,-1,-1,-1,-1],"split_conditions":[8.8369995E-1,1.3822079E0,1.4658461E0,-2.2327254E0,3.575548E-1,7.710795E-1,-6.735391E-2,-7.676932E-2,-8.2390934E-1,-3.950043E-1,-1.020706E0,1.8714281E0,-6.754222E-2,2.1376304E-2,-1.8181963E-2,-6.981873E-2,3.7826564E-2,3.2775413E-2,-7.7882685E-2,3.557293E-2,-6.598897E-2],"split_indices":[33,2,38,37,48,11,0,0,49,48,38,30,0,0,0,0,0,0,0,0,0],"split_type":[0,0,0,0,0,0,0,0,0,0,0,0,0,0,0,0,0,0,0,0,0],"sum_hessian":[6.439271E2,4.9325598E2,1.5067114E2,3.5058582E2,1.4267017E2,1.4222075E2,8.450383E0,1.7624254E1,3.3296155E2,1.1016918E2,3.250098E1,1.3433908E2,7.8816733E0,8.1778175E1,2.5118338E2,6.183977E0,1.0398521E2,1.6034708E1,1.6466272E1,1.2967645E2,4.662629E0],"tree_param":{"num_deleted":"0","num_feature":"51","num_nodes":"21","size_leaf_vector":"1"}},{"base_weights":[4.448305E-2,1.3500397E-2,6.652719E-2,6.5786585E-2,-6.760265E-2,2.7545315E-1,-1.6865228E-1,-5.969285E-3,2.3281937E-2,-4.3615E-2,1.3239622E-3],"categories":[],"categories_nodes":[],"categories_segments":[],"categories_sizes":[],"default_left":[0,0,0,0,0,0,0,0,0,0,0],"id":36,"left_children":[1,3,-1,5,-1,7,9,-1,-1,-1,-1],"loss_changes":[2.503543E1,4.399835E1,0E0,2.9207354E1,0E0,2.360117E1,3.8564594E1,0E0,0E0,0E0,0E0],"parents":[2147483647,0,0,1,1,3,3,5,5,6,6],"right_children":[2,4,-1,6,-1,8,10,-1,-1,-1,-1],"split_conditions":[3.570022E0,1.7105763E0,6.652719E-2,3.3905774E-2,-6.760265E-2,-1.1772574E0,-1.9405925E-1,-5.969285E-3,2.3281937E-2,-4.3615E-2,1.3239622E-3],"split_indices":[36,23,0,6,0,6,50,0,0,0,0],"split_type":[0,0,0,0,0,0,0,0,0,0,0],"sum_hessian":[6.277622E2,6.139812E2,1.3781003E1,5.922559E2,2.1725288E1,3.125537E2,2.797022E2,1.017291E2,2.108246E2,5.9971962E1,2.1973026E2],"tree_param":{"num_deleted":"0","num_feature":"51","num_nodes":"11","size_leaf_vector":"1"}},{"base_weights":[3.624547E-2,8.757833E-2,-9.0381855E-1,-1.1352721E0,1.2906666E-1,-1.302491E0,4.671797E-1,-7.6861806E-2,6.0924716E-2,2.5777993E-1,-2.5009352E-1,3.9010245E-2,-7.636993E-2,5.5390008E-2,-4.872163E-2,-2.7561823E-2,1.8720804E-2,-7.515602E-2,-3.8612355E-3],"categories":[],"categories_nodes":[],"categories_segments":[],"categories_sizes":[],"default_left":[0,0,0,0,0,0,0,0,0,0,0,0,0,0,0,0,0,0,0],"id":37,"left_children":[1,3,5,7,9,11,13,-1,-1,15,17,-1,-1,-1,-1,-1,-1,-1,-1],"loss_changes":[3.073266E1,3.0751587E1,1.8634232E1,2.0698362E1,2.8582384E1,1.3283142E1,8.620602E0,0E0,0E0,4.141797E1,3.2072548E1,0E0,0E0,0E0,0E0,0E0,0E0,0E0,0E0],"parents":[2147483647,0,0,1,1,2,2,3,3,4,4,5,5,6,6,9,9,10,10],"right_children":[2,4,6,8,10,12,14,-1,-1,16,18,-1,-1,-1,-1,-1,-1,-1,-1],"split_conditions":[2.457763E0,-1.9205588E0,1.57398E0,1.8757586E0,6.289184E-1,4.4292417E-1,-7.9766196E-1,-7.6861806E-2,6.0924716E-2,-9.6391565E-1,-7.02509E-1,3.9010245E-2,-7.636993E-2,5.5390008E-2,-4.872163E-2,-2.7561823E-2,1.8720804E-2,-7.515602E-2,-3.8612355E-3],"split_indices":[34,30,9,26,12,5,32,0,0,47,42,0,0,0,0,0,0,0,0],"split_type":[0,0,0,0,0,0,0,0,0,0,0,0,0,0,0,0,0,0,0],"sum_hessian":[6.342245E2,6.022453E2,3.197919E1,1.8897123E1,5.833482E2,2.4813614E1,7.1655774E0,1.6437002E1,2.4601212E0,4.357459E2,1.4760228E2,2.1777883E0,2.2635826E1,5.121328E0,2.0442493E0,5.4436314E1,3.813096E2,1.6961676E1,1.3064061E2],"tree_param":{"num_deleted":"0","num_feature":"51","num_nodes":"19","size_leaf_vector":"1"}},{"base_weights":[-3.3662897E-2,1.417876E-3,-7.366016E-2,2.914359E-2,-6.9606744E-2,1.0492493E-1,-4.5270213E-1,1.2080733E-3,3.5374645E-2,2.217044E-2,-4.46152E-2],"categories":[],"categories_nodes":[],"categories_segments":[],"categories_sizes":[],"default_left":[0,0,0,0,0,0,0,0,0,0,0],"id":38,"left_children":[1,3,-1,5,-1,7,9,-1,-1,-1,-1],"loss_changes":[3.0478298E1,2.2841545E1,0E0,2.1211428E1,0E0,2.4395536E1,3.1498636E1,0E0,0E0,0E0,0E0],"parents":[2147483647,0,0,1,1,3,3,5,5,6,6],"right_children":[2,4,-1,6,-1,8,10,-1,-1,-1,-1],"split_conditions":[1.8104838E0,2.0939364E0,-7.366016E-2,1.5873568E0,-6.9606744E-2,1.7395703E0,-1.1938337E0,1.2080733E-3,3.5374645E-2,2.217044E-2,-4.46152E-2],"split_indices":[9,42,0,19,0,6,32,0,0,0,0],"split_type":[0,0,0,0,0,0,0,0,0,0,0],"sum_hessian":[6.0248706E2,5.8912933E2,1.335773E1,5.7859686E2,1.0532505E1,5.0064166E2,7.795519E1,4.423876E2,5.825405E1,2.56533E1,5.230189E1],"tree_param":{"num_deleted":"0","num_feature":"51","num_nodes":"11","size_leaf_vector":"1"}},{"base_weights":[5.6607198E-2,8.085509E-2,-7.1559854E-2,1.3912271E-1,-5.222797E-1,-5.408935E-3,6.353334E-1,9.76281E-3,-7.231395E-2,-4.343501E-3,4.1264568E-2,3.585228E-2,-6.395054E-2,-7.579432E-2,2.0244107E-2],"categories":[],"categories_nodes":[],"categories_segments":[],"categories_sizes":[],"default_left":[0,0,0,0,0,0,0,0,0,0,0,0,0,0,0],"id":39,"left_children":[1,3,-1,5,7,9,11,13,-1,-1,-1,-1,-1,-1,-1],"loss_changes":[2.1833036E1,2.0922394E1,0E0,3.8860504E1,2.5811916E1,2.8532238E1,2.0035755E1,2.128706E1,0E0,0E0,0E0,0E0,0E0,0E0,0E0],"parents":[2147483647,0,0,1,1,3,3,4,4,5,5,6,6,7,7],"right_children":[2,4,-1,6,8,10,12,14,-1,-1,-1,-1,-1,-1,-1],"split_conditions":[1.9716398E0,1.4558364E0,-7.1559854E-2,6.7517525E-1,5.262561E-2,1.3829606E0,2.457763E0,-7.112313E-1,-7.231395E-2,-4.343501E-3,4.1264568E-2,3.585228E-2,-6.395054E-2,-7.579432E-2,2.0244107E-2],"split_indices":[29,42,0,42,50,11,34,11,0,0,0,0,0,0,0],"split_type":[0,0,0,0,0,0,0,0,0,0,0,0,0,0,0],"sum_hessian":[6.009861E2,5.922789E2,8.7071705E0,5.408024E2,5.1476482E1,4.195801E2,1.212223E2,3.3294697E1,1.8181786E1,3.8292474E2,3.665538E1,1.1685967E2,4.36262E0,6.265519E0,2.7029179E1],"tree_param":{"num_deleted":"0","num_feature":"51","num_nodes":"15","size_leaf_vector":"1"}},{"base_weights":[4.8635756E-3,4.2827286E-2,-6.4598426E-2,-8.963081E-2,3.6859563E-1,3.302349E-2,-9.552011E-1,-6.5903895E-2,4.68807E-1,-4.6002916E-3,3.0367611E-2,-5.9838988E-2,1.6953139E-2,6.0257208E-2,1.14711905E-2],"categories":[],"categories_nodes":[],"categories_segments":[],"categories_sizes":[],"default_left":[0,0,0,0,0,0,0,0,0,0,0,0,0,0,0],"id":40,"left_children":[1,3,-1,5,7,9,11,-1,13,-1,-1,-1,-1,-1,-1],"loss_changes":[2.9594517E1,2.5228537E1,0E0,4.4187588E1,2.9179691E1,2.6284466E1,1.6556606E1,0E0,2.7968773E1,0E0,0E0,0E0,0E0,0E0,0E0],"parents":[2147483647,0,0,1,1,3,3,4,4,5,5,6,6,8,8],"right_children":[2,4,-1,6,8,10,12,-1,14,-1,-1,-1,-1,-1,-1],"split_conditions":[2.7632887E0,5.724958E-1,-6.4598426E-2,8.9219E-1,-1.5930207E0,1.1394719E0,3.8522574E-1,-6.5903895E-2,-9.3700784E-1,-4.6002916E-3,3.0367611E-2,-5.9838988E-2,1.6953139E-2,6.0257208E-2,1.14711905E-2],"split_indices":[19,21,0,12,9,10,21,0,45,0,0,0,0,0,0],"split_type":[0,0,0,0,0,0,0,0,0,0,0,0,0,0,0],"sum_hessian":[5.989929E2,5.8289606E2,1.6096836E1,4.1491544E2,1.6798064E2,3.6426035E2,5.0655106E1,8.739067E0,1.5924158E2,2.9982852E2,6.443181E1,4.275084E1,7.904265E0,3.807853E1,1.2116304E2],"tree_param":{"num_deleted":"0","num_feature":"51","num_nodes":"15","size_leaf_vector":"1"}},{"base_weights":[3.0274902E-2,-1.0394537E-1,3.0663005E-1,-2.985016E-1,2.675873E-1,5.4851735E-1,-3.5822764E-1,-3.9498948E-2,-1.0610037E0,-8.3216757E-1,4.7501752E-1,-2.706596E-1,7.3981255E-1,-1.2342166E0,5.206165E-1,-7.457276E-2,3.571825E-3,9.5636956E-4,-7.894614E-2,-7.361393E-2,6.6215776E-2,-7.094575E-2,3.083977E-2,-4.9150724E-2,2.4917742E-2,-6.041604E-2,4.0242255E-2,2.7172187E-2,-7.23457E-2,-7.0735954E-2,5.8912884E-2],"categories":[],"categories_nodes":[],"categories_segments":[],"categories_sizes":[],"default_left":[0,0,0,0,0,0,0,0,0,0,0,0,0,0,0,0,0,0,0,0,0,0,0,0,0,0,0,0,0,0,0],"id":41,"left_children":[1,3,5,7,9,11,13,15,17,19,21,23,25,27,29,-1,-1,-1,-1,-1,-1,-1,-1,-1,-1,-1,-1,-1,-1,-1,-1],"loss_changes":[2.2792225E1,2.9988384E1,3.249691E1,5.368174E1,3.2955597E1,2.333981E1,4.2356438E1,3.298115E1,3.8593933E1,3.3716255E1,3.329036E1,1.6204802E1,1.6172623E1,1.1158714E1,3.6987408E1,0E0,0E0,0E0,0E0,0E0,0E0,0E0,0E0,0E0,0E0,0E0,0E0,0E0,0E0,0E0,0E0],"parents":[2147483647,0,0,1,1,2,2,3,3,4,4,5,5,6,6,7,7,8,8,9,9,10,10,11,11,12,12,13,13,14,14],"right_children":[2,4,6,8,10,12,14,16,18,20,22,24,26,28,30,-1,-1,-1,-1,-1,-1,-1,-1,-1,-1,-1,-1,-1,-1,-1,-1],"split_conditions":[5.8577174E-1,4.058017E-1,1.4558364E0,1.3920316E-1,8.490511E-1,-4.0790874E-1,9.8247105E-1,-1.36685E0,-2.133615E0,1.1154765E0,-4.692569E-1,8.9397013E-1,-1.3997638E0,-2.0310144E0,-1.1575909E-1,-7.457276E-2,3.571825E-3,9.5636956E-4,-7.894614E-2,-7.361393E-2,6.6215776E-2,-7.094575E-2,3.083977E-2,-4.9150724E-2,2.4917742E-2,-6.041604E-2,4.0242255E-2,2.7172187E-2,-7.23457E-2,-7.0735954E-2,5.8912884E-2],"split_indices":[42,50,42,22,29,28,5,4,37,48,48,32,7,27,50,0,0,0,0,0,0,0,0,0,0,0,0,0,0,0,0],"split_type":[0,0,0,0,0,0,0,0,0,0,0,0,0,0,0,0,0,0,0,0,0,0,0,0,0,0,0,0,0,0,0],"sum_hessian":[6.126113E2,4.1276385E2,1.9984744E2,2.7103214E2,1.4173172E2,1.4666356E2,5.3183887E1,2.0309702E2,6.793512E1,2.2012722E1,1.19718994E2,2.768673E1,1.1897682E2,2.6432701E1,2.6751188E1,1.3532698E1,1.8956433E2,2.232952E1,4.56056E1,1.7218899E1,4.793824E0,7.710511E0,1.12008484E2,1.4228386E1,1.3458344E1,3.2754757E0,1.1570135E2,2.6585255E0,2.3774176E1,6.4927716E0,2.0258417E1],"tree_param":{"num_deleted":"0","num_feature":"51","num_nodes":"31","size_leaf_vector":"1"}},{"base_weights":[-4.298749E-3,-7.5680055E-2,5.721826E-1,-8.600316E-3,-9.446674E-1,-5.218694E-1,9.2997944E-1,-1.5186647E-1,5.174275E-1,4.0557712E-1,-1.2964077E0,5.445611E-2,-6.986214E-2,1.0829655E0,-5.7753295E-2,-7.617702E-2,-4.3368223E-3,-7.056351E-2,3.1695623E-2,-5.125618E-2,6.269024E-2,5.029721E-2,-7.5441666E-2,-5.3359706E-2,6.0413457E-2],"categories":[],"categories_nodes":[],"categories_segments":[],"categories_sizes":[],"default_left":[0,0,0,0,0,0,0,0,0,0,0,0,0,0,0,0,0,0,0,0,0,0,0,0,0],"id":42,"left_children":[1,3,5,7,9,11,13,15,17,19,21,-1,-1,23,-1,-1,-1,-1,-1,-1,-1,-1,-1,-1,-1],"loss_changes":[2.4782022E1,3.1226122E1,2.6459917E1,3.7642E1,1.8758083E1,2.5485966E1,1.731546E1,3.4934395E1,2.4915907E1,1.1837639E1,1.6529392E1,0E0,0E0,1.4069626E1,0E0,0E0,0E0,0E0,0E0,0E0,0E0,0E0,0E0,0E0,0E0],"parents":[2147483647,0,0,1,1,2,2,3,3,4,4,5,5,6,6,7,7,8,8,9,9,10,10,13,13],"right_children":[2,4,6,8,10,12,14,16,18,20,22,-1,-1,24,-1,-1,-1,-1,-1,-1,-1,-1,-1,-1,-1],"split_conditions":[1.2345151E0,5.6947964E-1,1.7780265E-1,7.4196E-1,-1.453888E0,-2.6730561E0,7.4576753E-1,-2.3834631E0,-1.3598797E0,-4.0709937E-1,-2.6210606E0,5.445611E-2,-6.986214E-2,-1.6168221E0,-5.7753295E-2,-7.617702E-2,-4.3368223E-3,-7.056351E-2,3.1695623E-2,-5.125618E-2,6.269024E-2,5.029721E-2,-7.5441666E-2,-5.3359706E-2,6.0413457E-2],"split_indices":[11,48,20,24,47,18,36,37,5,33,6,0,0,8,0,0,0,0,0,0,0,0,0,0,0],"split_type":[0,0,0,0,0,0,0,0,0,0,0,0,0,0,0,0,0,0,0,0,0,0,0,0,0],"sum_hessian":[6.00184E2,5.34829E2,6.535509E1,4.9743997E2,3.738899E1,1.5993243E1,4.9361847E1,3.9151917E2,1.059208E2,7.695354E0,2.9693634E1,5.5447655E0,1.0448478E1,4.643535E1,2.926497E0,1.6732445E1,3.747867E2,5.3997107E0,1.0052109E2,2.7866237E0,4.90873E0,2.1927063E0,2.7500927E1,2.1431367E0,4.429221E1],"tree_param":{"num_deleted":"0","num_feature":"51","num_nodes":"25","size_leaf_vector":"1"}},{"base_weights":[1.9168325E-2,-1.0479015E0,5.615887E-2,-7.0655786E-2,4.952795E-1,5.9840566E-1,-1.853242E-2,5.739082E-2,-3.552867E-2,-7.1051076E-2,8.262689E-1,-5.4566327E-2,1.2406739E0,-3.1264503E-2,5.1280882E-2,-7.1223855E-2,-3.6713618E-4,6.767597E-2,2.1052605E-2],"categories":[],"categories_nodes":[],"categories_segments":[],"categories_sizes":[],"default_left":[0,0,0,0,0,0,0,0,0,0,0,0,0,0,0,0,0,0,0],"id":43,"left_children":[1,3,5,-1,7,9,11,-1,-1,-1,13,15,17,-1,-1,-1,-1,-1,-1],"loss_changes":[2.4044947E1,1.2203178E1,2.3836714E1,0E0,4.4717817E0,3.396037E1,2.3572412E1,0E0,0E0,0E0,1.9351322E1,3.2631023E1,7.669182E-1,0E0,0E0,0E0,0E0,0E0,0E0],"parents":[2147483647,0,0,1,1,2,2,4,4,5,5,6,6,10,10,11,11,12,12],"right_children":[2,4,6,-1,8,10,12,-1,-1,-1,14,16,18,-1,-1,-1,-1,-1,-1],"split_conditions":[-1.5580359E0,1.6355076E0,-1.2762241E0,-7.0655786E-2,-3.652213E-1,-1.2624551E0,3.570022E0,5.739082E-2,-3.552867E-2,-7.1051076E-2,-1.2296422E0,-2.8718069E0,-4.4204563E-2,-3.1264503E-2,5.1280882E-2,-7.1223855E-2,-3.6713618E-4,6.767597E-2,2.1052605E-2],"split_indices":[20,39,20,0,7,6,36,0,0,0,31,28,35,0,0,0,0,0,0],"split_type":[0,0,0,0,0,0,0,0,0,0,0,0,0,0,0,0,0,0,0],"sum_hessian":[6.066816E2,1.9410688E1,5.872709E2,1.5764173E1,3.6465166E0,7.0250656E1,5.170202E2,2.3973436E0,1.2491728E0,6.5921116E0,6.3658546E1,5.0356662E2,1.345358E1,7.4288273E0,5.622972E1,1.5808647E1,4.87758E2,1.125289E1,2.2006907E0],"tree_param":{"num_deleted":"0","num_feature":"51","num_nodes":"19","size_leaf_vector":"1"}},{"base_weights":[3.9691325E-2,-7.48272E-2,6.486401E-2,-5.547469E-2,3.64853E-1,2.5382975E-1,-2.617495E-1,5.47411E-1,-5.353309E-1,-6.7779325E-2,1.7298793E-2,1.8622573E-2,-3.2312587E-2,-6.649496E-2,3.2928154E-2,3.6733888E-2,-5.614073E-2],"categories":[],"categories_nodes":[],"categories_segments":[],"categories_sizes":[],"default_left":[0,0,0,0,0,0,0,0,0,0,0,0,0,0,0,0,0],"id":44,"left_children":[1,-1,3,5,7,9,11,13,15,-1,-1,-1,-1,-1,-1,-1,-1],"loss_changes":[2.3417189E1,0E0,2.1473654E1,2.7182297E1,2.8274605E1,2.5760927E1,6.2534554E1,3.0518261E1,2.2622063E1,0E0,0E0,0E0,0E0,0E0,0E0,0E0,0E0],"parents":[2147483647,0,0,2,2,3,3,4,4,5,5,6,6,7,7,8,8],"right_children":[2,-1,4,6,8,10,12,14,16,-1,-1,-1,-1,-1,-1,-1,-1],"split_conditions":[-3.1334836E0,-7.48272E-2,1.3320904E0,-6.877001E-1,3.575548E-1,-1.434598E0,-1.0091306E0,-5.1126903E-1,-1.6281121E0,-6.7779325E-2,1.7298793E-2,1.8622573E-2,-3.2312587E-2,-6.649496E-2,3.2928154E-2,3.6733888E-2,-5.614073E-2],"split_indices":[40,0,2,23,48,4,31,48,6,0,0,0,0,0,0,0,0],"split_type":[0,0,0,0,0,0,0,0,0,0,0,0,0,0,0,0,0],"sum_hessian":[6.020362E2,8.763563E0,5.9327264E2,4.2400198E2,1.6927066E2,1.6954402E2,2.5445798E2,1.4105624E2,2.8214426E1,8.438941E0,1.6110507E2,9.605517E1,1.584028E2,7.2719245E0,1.3378432E2,8.844355E0,1.9370071E1],"tree_param":{"num_deleted":"0","num_feature":"51","num_nodes":"17","size_leaf_vector":"1"}},{"base_weights":[6.3755065E-2,8.761664E-1,1.5562345E-2,1.3304614E0,-1.8438816E-1,-2.3834397E-1,1.939267E-1,7.416306E-2,-4.067927E-2,-6.507191E-2,6.147492E-2,3.920991E-1,-5.449714E-1,-7.049114E-2,2.4946104E-1,2.6880955E-2,-6.3766845E-2,-4.3064665E-2,-8.1673265E-4,-3.4896497E-2,1.6922148E-2],"categories":[],"categories_nodes":[],"categories_segments":[],"categories_sizes":[],"default_left":[0,0,0,0,0,0,0,0,0,0,0,0,0,0,0,0,0,0,0,0,0],"id":45,"left_children":[1,3,5,7,9,11,13,-1,-1,-1,-1,15,17,-1,19,-1,-1,-1,-1,-1,-1],"loss_changes":[2.3978006E1,1.6769613E1,2.6289642E1,9.112961E0,1.9231794E1,4.6522335E1,3.0715607E1,0E0,0E0,0E0,0E0,1.9846992E1,2.700632E1,0E0,2.808618E1,0E0,0E0,0E0,0E0,0E0,0E0],"parents":[2147483647,0,0,1,1,2,2,3,3,4,4,5,5,6,6,11,11,12,12,14,14],"right_children":[2,4,6,8,10,12,14,-1,-1,-1,-1,16,18,-1,20,-1,-1,-1,-1,-1,-1],"split_conditions":[-2.1487117E0,5.6947964E-1,1.3265683E-1,1.0573121E0,1.9565651E0,-1.411684E0,-1.4281586E0,7.416306E-2,-4.067927E-2,-6.507191E-2,6.147492E-2,8.1965995E-1,5.504699E-1,-7.049114E-2,-4.692569E-1,2.6880955E-2,-6.3766845E-2,-4.3064665E-2,-8.1673265E-4,-3.4896497E-2,1.6922148E-2],"split_indices":[33,48,2,1,26,1,33,0,0,0,0,18,33,0,48,0,0,0,0,0,0],"split_type":[0,0,0,0,0,0,0,0,0,0,0,0,0,0,0,0,0,0,0,0,0],"sum_hessian":[6.117772E2,3.3296654E1,5.784805E2,2.3132996E1,1.0163656E1,2.38555E2,3.3992554E2,2.1881746E1,1.25125E0,5.722271E0,4.4413853E0,7.796856E1,1.6058644E2,1.0560732E1,3.293648E2,7.2333466E1,5.6350884E0,1.00075E2,6.051144E1,2.769135E1,3.0167346E2],"tree_param":{"num_deleted":"0","num_feature":"51","num_nodes":"21","size_leaf_vector":"1"}},{"base_weights":[3.130506E-2,-2.3321064E-1,2.0382454E-1,4.5775807E-1,-4.1166118E-1,-7.640439E-1,2.8083596E-1,7.9073274E-1,-6.515311E-2,-2.3422533E-1,-7.839024E-2,2.7967495E-1,-7.1500376E-2,-7.5923614E-2,3.1853038E-1,-3.252263E-2,5.6971878E-2,9.222551E-3,-3.61814E-2,4.7135554E-2,-6.307631E-2,2.7868694E-2,-2.44752E-4],"categories":[],"categories_nodes":[],"categories_segments":[],"categories_sizes":[],"default_left":[0,0,0,0,0,0,0,0,0,0,0,0,0,0,0,0,0,0,0,0,0,0,0],"id":46,"left_children":[1,3,5,7,9,11,13,15,-1,17,-1,19,-1,-1,21,-1,-1,-1,-1,-1,-1,-1,-1],"loss_changes":[2.7738836E1,2.978196E1,2.7629742E1,3.0190506E1,3.887014E1,1.9429417E1,2.3640718E1,2.2073385E1,0E0,3.4351303E1,0E0,1.2941404E1,0E0,0E0,2.5900116E1,0E0,0E0,0E0,0E0,0E0,0E0,0E0,0E0],"parents":[2147483647,0,0,1,1,2,2,3,3,4,4,5,5,6,6,7,7,9,9,11,11,14,14],"right_children":[2,4,6,8,10,12,14,16,-1,18,-1,20,-1,-1,22,-1,-1,-1,-1,-1,-1,-1,-1],"split_conditions":[-8.123367E-2,-1.4741476E0,-2.1337967E0,8.507556E-1,5.5805504E-1,-9.912903E-1,-1.3483868E0,-3.1162956E-1,-6.515311E-2,-2.5835523E-1,-7.839024E-2,5.4184943E-1,-7.1500376E-2,-7.5923614E-2,8.7185323E-1,-3.252263E-2,5.6971878E-2,9.222551E-3,-3.61814E-2,4.7135554E-2,-6.307631E-2,2.7868694E-2,-2.44752E-4],"split_indices":[2,34,34,19,11,36,21,3,0,21,0,14,0,0,3,0,0,0,0,0,0,0,0],"split_type":[0,0,0,0,0,0,0,0,0,0,0,0,0,0,0,0,0,0,0,0,0,0,0],"sum_hessian":[6.058115E2,2.3900502E2,3.6680652E2,4.8735138E1,1.9026987E2,2.6377447E1,3.4042908E2,4.144814E1,7.2869983E0,1.6599661E2,2.4273264E1,1.0500608E1,1.5876839E1,6.179356E0,3.3424973E2,7.9063053E0,3.3541836E1,8.97985E1,7.619811E1,7.6135354E0,2.8870723E0,1.9184932E2,1.4240039E2],"tree_param":{"num_deleted":"0","num_feature":"51","num_nodes":"23","size_leaf_vector":"1"}},{"base_weights":[4.38217E-2,-4.5552447E-2,4.1758806E-1,-3.322576E-1,2.1691841E-1,9.76711E-2,1.2022083E0,2.971773E-1,-5.7031184E-1,3.0608204E-1,-6.755387E-2,2.6615995E-1,-6.530911E-2,-5.0940014E-2,1.3859303E0,-1.7399743E-2,4.3313976E-2,-5.037204E-2,-2.9261352E-3,3.6584921E-3,3.3366602E-2,2.2809701E-2,-4.4182852E-2,3.546424E-2,7.57948E-2],"categories":[],"categories_nodes":[],"categories_segments":[],"categories_sizes":[],"default_left":[0,0,0,0,0,0,0,0,0,0,0,0,0,0,0,0,0,0,0,0,0,0,0,0,0],"id":47,"left_children":[1,3,5,7,9,11,13,15,17,19,-1,21,-1,-1,23,-1,-1,-1,-1,-1,-1,-1,-1,-1,-1],"loss_changes":[2.0176464E1,3.6785988E1,2.9136618E1,3.516767E1,3.610802E1,2.0187288E1,1.5149834E1,2.4076889E1,3.793225E1,2.034564E1,0E0,1.6948114E1,0E0,0E0,1.6965752E0,0E0,0E0,0E0,0E0,0E0,0E0,0E0,0E0,0E0,0E0],"parents":[2147483647,0,0,1,1,2,2,3,3,4,4,5,5,6,6,7,7,8,8,9,9,11,11,14,14],"right_children":[2,4,6,8,10,12,14,16,18,20,-1,22,-1,-1,24,-1,-1,-1,-1,-1,-1,-1,-1,-1,-1],"split_conditions":[8.906152E-1,7.956313E-2,2.1400096E0,-9.6535176E-1,2.0171978E0,1.1823788E0,-1.5120484E-1,-1.2216295E0,2.9227823E-1,2.6251648E-2,-6.755387E-2,1.0060495E0,-6.530911E-2,-5.0940014E-2,-8.4212583E-1,-1.7399743E-2,4.3313976E-2,-5.037204E-2,-2.9261352E-3,3.6584921E-3,3.3366602E-2,2.2809701E-2,-4.4182852E-2,3.546424E-2,7.57948E-2],"split_indices":[27,33,37,44,37,38,50,8,41,43,0,35,0,0,22,0,0,0,0,0,0,0,0,0,0],"split_type":[0,0,0,0,0,0,0,0,0,0,0,0,0,0,0,0,0,0,0,0,0,0,0,0,0],"sum_hessian":[6.0242505E2,4.868813E2,1.155438E2,2.325709E2,2.5431036E2,8.28766E1,3.2667194E1,6.3753387E1,1.6881752E2,2.4138867E2,1.2921702E1,7.471929E1,8.157315E0,2.148518E0,3.0518675E1,3.0061821E1,3.3691563E1,9.052766E1,7.828986E1,1.474952E2,9.389347E1,6.463937E1,1.0079917E1,5.957802E0,2.4560873E1],"tree_param":{"num_deleted":"0","num_feature":"51","num_nodes":"25","size_leaf_vector":"1"}},{"base_weights":[8.904454E-2,2.1914497E-1,-3.5040945E-1,2.4597579E-1,-6.699643E-2,-7.976065E-1,4.3198356E-1,-2.8778642E-1,3.212618E-1,7.993647E-1,-1.0051199E0,-4.5706472E-1,1.0153134E0,3.919184E-2,-4.9856164E-2,-6.355254E-2,1.816324E-2,-4.7997177E-2,7.079395E-2,3.132532E-2,-5.9052326E-2,6.1391056E-2,-5.1788706E-2,-5.483662E-2,6.102684E-2],"categories":[],"categories_nodes":[],"categories_segments":[],"categories_sizes":[],"default_left":[0,0,0,0,0,0,0,0,0,0,0,0,0,0,0,0,0,0,0,0,0,0,0,0,0],"id":48,"left_children":[1,3,5,7,-1,9,11,13,15,17,19,21,23,-1,-1,-1,-1,-1,-1,-1,-1,-1,-1,-1,-1],"loss_changes":[3.5390736E1,2.0291096E1,4.9844444E1,1.897783E1,0E0,3.0752274E1,2.748494E1,4.53417E1,2.8039974E1,1.3235676E1,2.382502E1,2.2071428E1,1.510944E1,0E0,0E0,0E0,0E0,0E0,0E0,0E0,0E0,0E0,0E0,0E0,0E0],"parents":[2147483647,0,0,1,1,2,2,3,3,5,5,6,6,7,7,8,8,9,9,10,10,11,11,12,12],"right_children":[2,4,6,8,-1,10,12,14,16,18,20,22,24,-1,-1,-1,-1,-1,-1,-1,-1,-1,-1,-1,-1],"split_conditions":[6.289184E-1,2.1671104E0,1.3822079E0,-9.6391565E-1,-6.699643E-2,-1.717107E0,1.2976048E0,-4.2265663E-1,-3.0214665E0,-1.728191E0,-2.5770698E0,-1.2949444E0,6.6188896E-1,3.919184E-2,-4.9856164E-2,-6.355254E-2,1.816324E-2,-4.7997177E-2,7.079395E-2,3.132532E-2,-5.9052326E-2,6.1391056E-2,-5.1788706E-2,-5.483662E-2,6.102684E-2],"split_indices":[12,30,2,47,0,23,32,22,31,23,18,6,6,0,0,0,0,0,0,0,0,0,0,0,0],"split_type":[0,0,0,0,0,0,0,0,0,0,0,0,0,0,0,0,0,0,0,0,0,0,0,0,0],"sum_hessian":[6.1666656E2,4.7619138E2,1.4047522E2,4.6896298E2,7.228375E0,8.937256E1,5.1102657E1,5.76208E1,4.113422E2,9.9497385E0,7.942282E1,2.0331713E1,3.0770943E1,2.2907902E1,3.47129E1,9.819746E0,4.0152246E2,2.4373565E0,7.512382E0,7.480836E0,7.1941986E1,4.9112325E0,1.542048E1,2.3404317E0,2.8430511E1],"tree_param":{"num_deleted":"0","num_feature":"51","num_nodes":"25","size_leaf_vector":"1"}},{"base_weights":[2.131292E-2,-6.932109E-2,4.8154116E-2,1.1899011E-1,-4.5426556E-1,4.482052E-2,7.96033E-1,-1.3065733E0,2.2405403E-2,1.7307367E-2,-9.117773E-3,-6.9080494E-2,4.9298614E-2,-7.676144E-2,4.65632E-2,3.7873324E-2,-3.566288E-2],"categories":[],"categories_nodes":[],"categories_segments":[],"categories_sizes":[],"default_left":[0,0,0,0,0,0,0,0,0,0,0,0,0,0,0,0,0],"id":49,"left_children":[1,-1,3,5,7,9,11,13,15,-1,-1,-1,-1,-1,-1,-1,-1],"loss_changes":[2.259551E1,0E0,2.0910923E1,2.5796339E1,2.953405E1,3.1872948E1,2.2345364E1,1.4767033E1,2.6257832E1,0E0,0E0,0E0,0E0,0E0,0E0,0E0,0E0],"parents":[2147483647,0,0,2,2,3,3,4,4,5,5,6,6,7,7,8,8],"right_children":[2,-1,4,6,8,10,12,14,16,-1,-1,-1,-1,-1,-1,-1,-1],"split_conditions":[-1.7538733E0,-6.932109E-2,1.1565105E0,9.148443E-1,-1.01391986E-1,0E0,-9.980045E-1,3.1007394E-1,-1.7971249E-1,1.7307367E-2,-9.117773E-3,-6.9080494E-2,4.9298614E-2,-7.676144E-2,4.65632E-2,3.7873324E-2,-3.566288E-2],"split_indices":[23,0,9,9,24,22,37,14,27,0,0,0,0,0,0,0,0],"split_type":[0,0,0,0,0,0,0,0,0,0,0,0,0,0,0,0,0],"sum_hessian":[5.9523083E2,1.0189162E1,5.850416E2,5.1341815E2,7.16235E1,4.6368768E2,4.973047E1,2.506507E1,4.655843E1,1.9909021E2,2.6459747E2,3.4862978E0,4.624417E1,2.302628E1,2.0387883E0,2.3273918E1,2.3284513E1],"tree_param":{"num_deleted":"0","num_feature":"51","num_nodes":"17","size_leaf_vector":"1"}},{"base_weights":[7.457071E-2,-6.8498865E-2,1.0383893E-1,-7.256727E-2,1.2514053E-1,1.4790314E-1,-6.3122876E-2,9.865525E-3,-2.3035472E-2],"categories":[],"categories_nodes":[],"categories_segments":[],"categories_sizes":[],"default_left":[0,0,0,0,0,0,0,0,0],"id":50,"left_children":[1,-1,3,-1,5,7,-1,-1,-1],"loss_changes":[2.5670189E1,0E0,1.981757E1,0E0,1.8684439E1,1.7443836E1,0E0,0E0,0E0],"parents":[2147483647,0,0,2,2,4,4,5,5],"right_children":[2,-1,4,-1,6,8,-1,-1,-1],"split_conditions":[-1.7538733E0,-6.8498865E-2,-1.8117862E0,-7.256727E-2,2.6213496E0,2.167949E0,-6.3122876E-2,9.865525E-3,-2.3035472E-2],"split_indices":[23,0,41,0,30,43,0,0,0],"split_type":[0,0,0,0,0,0,0,0,0],"sum_hessian":[6.02792E2,1.1061042E1,5.9173096E2,7.0884094E0,5.846425E2,5.760857E2,8.556883E0,5.334554E2,4.2630272E1],"tree_param":{"num_deleted":"0","num_feature":"51","num_nodes":"9","size_leaf_vector":"1"}},{"base_weights":[2.0507177E-2,1.14528894E-1,-3.0402914E-1,-1.5797922E-1,4.431619E-1,-7.715993E-2,8.586388E-2,-1.0458446E0,5.0228745E-2,5.427723E-1,-9.2571455E-1,7.583803E-1,-3.7725466E-1,4.089759E-2,-6.659867E-2,-1.319345E-2,2.9079476E-2,3.0212918E-2,-6.868603E-2,6.2376674E-2,-7.412141E-2,-6.095006E-2,4.7305014E-2,-7.352788E-2,2.6697109E-2],"categories":[],"categories_nodes":[],"categories_segments":[],"categories_sizes":[],"default_left":[0,0,0,0,0,0,0,0,0,0,0,0,0,0,0,0,0,0,0,0,0,0,0,0,0],"id":51,"left_children":[1,3,5,7,9,-1,11,13,15,17,19,21,23,-1,-1,-1,-1,-1,-1,-1,-1,-1,-1,-1,-1],"loss_changes":[1.7938484E1,4.087766E1,6.3944122E1,4.6238865E1,2.8704132E1,0E0,3.1871578E1,2.6423603E1,3.4090473E1,2.3623108E1,1.927047E1,1.6627968E1,6.1279114E1,0E0,0E0,0E0,0E0,0E0,0E0,0E0,0E0,0E0,0E0,0E0,0E0],"parents":[2147483647,0,0,1,1,2,2,3,3,4,4,6,6,7,7,8,8,9,9,10,10,11,11,12,12],"right_children":[2,4,6,8,10,-1,12,14,16,18,20,22,24,-1,-1,-1,-1,-1,-1,-1,-1,-1,-1,-1,-1],"split_conditions":[1.2096652E0,-3.3708513E-2,3.6371222E-1,-6.3951045E-1,1.1596527E0,-7.715993E-2,-7.711191E-1,-2.1487117E0,5.506799E-1,1.6839634E0,-2.2144537E0,1.8211089E-1,8.929028E-2,4.089759E-2,-6.659867E-2,-1.319345E-2,2.9079476E-2,3.0212918E-2,-6.868603E-2,6.2376674E-2,-7.412141E-2,-6.095006E-2,4.7305014E-2,-7.352788E-2,2.6697109E-2],"split_indices":[3,3,50,5,5,0,30,33,39,7,7,49,34,0,0,0,0,0,0,0,0,0,0,0,0],"split_type":[0,0,0,0,0,0,0,0,0,0,0,0,0,0,0,0,0,0,0,0,0,0,0,0,0],"sum_hessian":[5.857464E2,4.546705E2,1.3107591E2,2.4884406E2,2.0582645E2,3.0663208E1,1.00412704E2,4.650572E1,2.0233833E2,1.9242738E2,1.3399062E1,4.0688892E1,5.9723816E1,5.941973E0,4.0563744E1,1.2748366E2,7.4854675E1,1.8710915E2,5.318243E0,2.479383E0,1.0919679E1,3.051514E0,3.7637375E1,2.6869942E1,3.2853874E1],"tree_param":{"num_deleted":"0","num_feature":"51","num_nodes":"25","size_leaf_vector":"1"}},{"base_weights":[3.8114846E-2,-7.0314926E-1,8.927902E-2,-6.7775995E-2,-7.088027E-2,1.6557339E-1,-3.2809183E-1,-6.20685E-2,5.53581E-1,4.065211E-1,-2.1751834E-2,-1.1629292E0,3.516834E-2,-5.5658754E-2,5.7419337E-2,-5.6661647E-2,2.7322976E-2,-1.2784389E-2,2.2558471E-2,4.53667E-2,-7.153501E-2,3.22761E-2,-2.7286438E-2],"categories":[],"categories_nodes":[],"categories_segments":[],"categories_sizes":[],"default_left":[0,0,0,0,0,0,0,0,0,0,0,0,0,0,0,0,0,0,0,0,0,0,0],"id":52,"left_children":[1,3,5,-1,7,9,11,-1,13,15,17,19,21,-1,-1,-1,-1,-1,-1,-1,-1,-1,-1],"loss_changes":[2.2571457E1,1.5756081E1,1.7760805E1,0E0,1.5723669E1,2.1257912E1,2.6203989E1,0E0,1.5263487E1,4.4999714E1,2.9523151E1,1.5814934E1,2.2010174E1,0E0,0E0,0E0,0E0,0E0,0E0,0E0,0E0,0E0,0E0],"parents":[2147483647,0,0,1,1,2,2,4,4,5,5,6,6,8,8,9,9,10,10,11,11,12,12],"right_children":[2,4,6,-1,8,10,12,-1,14,16,18,20,22,-1,-1,-1,-1,-1,-1,-1,-1,-1,-1],"split_conditions":[-1.5595835E0,9.28711E-1,1.2768488E0,-6.7775995E-2,-5.026399E-1,-2.7907488E-1,2.0652726E0,-6.20685E-2,-1.16748E0,-1.6521137E0,5.724958E-1,-6.218173E-1,-7.2472554E-1,-5.5658754E-2,5.7419337E-2,-5.6661647E-2,2.7322976E-2,-1.2784389E-2,2.2558471E-2,4.53667E-2,-7.153501E-2,3.22761E-2,-2.7286438E-2],"split_indices":[4,23,19,0,38,25,19,0,30,37,21,0,39,0,0,0,0,0,0,0,0,0,0],"split_type":[0,0,0,0,0,0,0,0,0,0,0,0,0,0,0,0,0,0,0,0,0,0,0],"sum_hessian":[5.924869E2,3.7431927E1,5.55055E2,1.7860102E1,1.9571825E1,4.6978308E2,8.5271904E1,6.4653234E0,1.3106503E1,2.049698E2,2.6481326E2,2.5186777E1,6.0085125E1,3.217888E0,9.888614E0,1.648507E1,1.8848474E2,1.7748006E2,8.7333206E1,2.611052E0,2.2575726E1,2.9245436E1,3.083969E1],"tree_param":{"num_deleted":"0","num_feature":"51","num_nodes":"23","size_leaf_vector":"1"}},{"base_weights":[6.575658E-2,-6.8640605E-2,3.412321E-1,-3.465325E-3,-1.1232084E0,-2.829022E-1,5.2961195E-1,3.9211515E-1,-1.596366E-1,4.591497E-2,-7.0223466E-2,2.4390684E-1,-6.929862E-2,7.573752E-1,-2.2883336E-1,-6.715612E-2,2.416204E-2,-3.2273043E-2,7.394278E-3,-2.4320103E-2,4.880191E-2,4.0721428E-2,-5.77701E-2,-5.7351608E-2,5.246793E-2],"categories":[],"categories_nodes":[],"categories_segments":[],"categories_sizes":[],"default_left":[0,0,0,0,0,0,0,0,0,0,0,0,0,0,0,0,0,0,0,0,0,0,0,0,0],"id":53,"left_children":[1,3,5,7,9,11,13,15,17,-1,-1,19,-1,21,23,-1,-1,-1,-1,-1,-1,-1,-1,-1,-1],"loss_changes":[2.2190384E1,2.7711557E1,2.325223E1,2.3586117E1,1.4764832E1,2.7189903E1,2.6306969E1,1.7736902E1,4.0987804E1,0E0,0E0,1.7650375E1,0E0,1.3663086E1,4.3110256E1,0E0,0E0,0E0,0E0,0E0,0E0,0E0,0E0,0E0,0E0],"parents":[2147483647,0,0,1,1,2,2,3,3,4,4,5,5,6,6,7,7,8,8,11,11,13,13,14,14],"right_children":[2,4,6,8,10,12,14,16,18,-1,-1,20,-1,22,24,-1,-1,-1,-1,-1,-1,-1,-1,-1,-1],"split_conditions":[5.6721E-1,1.4505688E0,-4.0790874E-1,-9.430814E-1,-3.1334836E0,-3.7893635E-1,1.0975038E0,-2.033288E0,6.381764E-1,4.591497E-2,-7.0223466E-2,1.0379213E0,-6.929862E-2,6.0551906E-1,1.639273E0,-6.715612E-2,2.416204E-2,-3.2273043E-2,7.394278E-3,-2.4320103E-2,4.880191E-2,4.0721428E-2,-5.77701E-2,-5.7351608E-2,5.246793E-2],"split_indices":[42,35,28,44,40,21,3,42,44,0,0,4,0,14,0,0,0,0,0,0,0,0,0,0,0],"split_type":[0,0,0,0,0,0,0,0,0,0,0,0,0,0,0,0,0,0,0,0,0,0,0,0,0],"sum_hessian":[5.977327E2,4.0224088E2,1.9549184E2,3.797731E2,2.246777E1,4.520808E1,1.5028375E2,1.07065735E2,2.7270737E2,2.4463332E0,2.0021437E1,3.1123072E1,1.4085009E1,1.1557706E2,3.4706696E1,4.6564865E0,1.0240925E2,1.0528267E2,1.6742471E2,1.5748955E1,1.5374117E1,1.1278712E2,2.7899399E0,2.0257315E1,1.4449381E1],"tree_param":{"num_deleted":"0","num_feature":"51","num_nodes":"25","size_leaf_vector":"1"}},{"base_weights":[2.1094691E-2,-9.321792E-2,3.7277898E-1,-6.196822E-1,2.8673079E-2,-6.0161293E-2,4.7631657E-1,1.3929965E-1,-1.2384835E0,-1.5905061E-1,4.35374E-1,-5.556677E-1,6.8137586E-1,-1.7129712E-2,5.8630235E-2,1.1528454E-2,-7.6540165E-2,2.6464632E-2,-2.1909455E-2,-6.1627038E-2,2.7185444E-2,3.7878405E-2,-7.109602E-2,-6.396571E-2,3.8237076E-2],"categories":[],"categories_nodes":[],"categories_segments":[],"categories_sizes":[],"default_left":[0,0,0,0,0,0,0,0,0,0,0,0,0,0,0,0,0,0,0,0,0,0,0,0,0],"id":54,"left_children":[1,3,5,7,9,-1,11,13,15,17,19,21,23,-1,-1,-1,-1,-1,-1,-1,-1,-1,-1,-1,-1],"loss_changes":[2.329993E1,2.8095661E1,2.3770422E1,3.8826904E1,2.7267488E1,0E0,2.875959E1,1.9255625E1,1.9866188E1,4.720542E1,2.1047255E1,2.6994242E1,1.933944E1,0E0,0E0,0E0,0E0,0E0,0E0,0E0,0E0,0E0,0E0,0E0,0E0],"parents":[2147483647,0,0,1,1,2,2,3,3,4,4,6,6,7,7,8,8,9,9,10,10,11,11,12,12],"right_children":[2,4,6,8,10,-1,12,14,16,18,20,22,24,-1,-1,-1,-1,-1,-1,-1,-1,-1,-1,-1,-1],"split_conditions":[8.649904E-1,-1.1556308E0,-1.5319673E0,-4.862334E-1,1.3822079E0,-6.0161293E-2,-7.368773E-1,1.6057715E0,-1.9964025E0,-8.6699015E-1,-1.6217946E0,-1.8612027E0,-1.2582517E0,-1.7129712E-2,5.8630235E-2,1.1528454E-2,-7.6540165E-2,2.6464632E-2,-2.1909455E-2,-6.1627038E-2,2.7185444E-2,3.7878405E-2,-7.109602E-2,-6.396571E-2,3.8237076E-2],"split_indices":[33,31,4,46,2,0,11,0,39,49,9,3,9,0,0,0,0,0,0,0,0,0,0,0,0],"split_type":[0,0,0,0,0,0,0,0,0,0,0,0,0,0,0,0,0,0,0,0,0,0,0,0,0],"sum_hessian":[5.7770776E2,4.365463E2,1.411615E2,8.130307E1,3.5524323E2,8.04733E0,1.3311417E2,3.6863533E1,4.4439537E1,2.434714E2,1.1177182E2,2.1782331E1,1.1133183E2,2.5595308E1,1.1268223E1,7.410302E0,3.7029236E1,6.9987976E1,1.7348343E2,6.1841407E0,1.0558768E2,8.707403E0,1.3074928E1,3.9555154E0,1.0737632E2],"tree_param":{"num_deleted":"0","num_feature":"51","num_nodes":"25","size_leaf_vector":"1"}},{"base_weights":[1.9190818E-2,5.6463502E-2,-1.037656E0,-6.592704E-2,8.3563864E-2,4.3790303E-2,-6.797161E-2,1.16301745E-1,-1.0163685E0,3.4902625E-2,2.9745707E-3,-6.704503E-2,4.3641884E-2],"categories":[],"categories_nodes":[],"categories_segments":[],"categories_sizes":[],"default_left":[0,0,0,0,0,0,0,0,0,0,0,0,0],"id":55,"left_children":[1,3,5,-1,7,-1,-1,9,11,-1,-1,-1,-1],"loss_changes":[2.2319752E1,2.0486483E1,1.3075827E1,0E0,1.9462255E1,0E0,0E0,1.7228933E1,1.0752863E1,0E0,0E0,0E0,0E0],"parents":[2147483647,0,0,1,1,2,2,4,4,7,7,8,8],"right_children":[2,4,6,-1,8,-1,-1,10,12,-1,-1,-1,-1],"split_conditions":[1.6867695E0,-1.8706894E0,-3.1334836E0,-6.592704E-2,1.7552159E0,4.3790303E-2,-6.797161E-2,-1.7748938E0,1.9565651E0,3.4902625E-2,2.9745707E-3,-6.704503E-2,4.3641884E-2],"split_indices":[35,13,40,0,0,0,0,24,26,0,0,0,0],"split_type":[0,0,0,0,0,0,0,0,0,0,0,0,0],"sum_hessian":[5.641258E2,5.458224E2,1.8303394E1,9.628769E0,5.361936E2,2.3870242E0,1.5916369E1,5.215643E2,1.4629334E1,4.5397377E1,4.761669E2,1.2732369E1,1.896965E0],"tree_param":{"num_deleted":"0","num_feature":"51","num_nodes":"13","size_leaf_vector":"1"}},{"base_weights":[1.45093305E-2,-9.301347E-2,3.892597E-1,-6.5342945E-1,1.7676459E-1,8.4262294E-1,-6.799239E-2,9.689786E-2,-1.0508735E0,-1.0610452E0,2.4770392E-1,1.1151992E0,-6.573301E-1,-9.9967134E-1,5.427908E-1,-7.346653E-2,2.517256E-2,-5.952735E-2,2.7657827E-2,5.4251213E-2,-7.462799E-2,1.5039535E-2,-6.361172E-2,-4.3594956E-2,5.9181955E-2,-6.700946E-2,5.7374645E-2,-6.6017695E-2,4.7498476E-2,4.2576667E-2,-6.3793354E-2],"categories":[],"categories_nodes":[],"categories_segments":[],"categories_sizes":[],"default_left":[0,0,0,0,0,0,0,0,0,0,0,0,0,0,0,0,0,0,0,0,0,0,0,0,0,0,0,0,0,0,0],"id":56,"left_children":[1,3,5,7,9,11,13,15,17,19,21,23,25,27,29,-1,-1,-1,-1,-1,-1,-1,-1,-1,-1,-1,-1,-1,-1,-1,-1],"loss_changes":[2.2873657E1,6.6821724E1,2.6292036E1,4.2921913E1,2.6484911E1,2.6744915E1,3.6923336E1,3.2982956E1,2.1707619E1,1.6784546E1,2.3237661E1,8.404243E0,1.4370993E1,1.7302105E1,2.3133247E1,0E0,0E0,0E0,0E0,0E0,0E0,0E0,0E0,0E0,0E0,0E0,0E0,0E0,0E0,0E0,0E0],"parents":[2147483647,0,0,1,1,2,2,3,3,4,4,5,5,6,6,7,7,8,8,9,9,10,10,11,11,12,12,13,13,14,14],"right_children":[2,4,6,8,10,12,14,16,18,20,22,24,26,28,30,-1,-1,-1,-1,-1,-1,-1,-1,-1,-1,-1,-1,-1,-1,-1,-1],"split_conditions":[1.1394719E0,-1.7368993E-1,-2.2556522E-1,-8.99417E-1,-1.397616E0,3.8714552E-1,4.069184E-1,-5.5254954E-1,2.8802073E0,-1.7403728E0,2.1671104E0,-1.8862281E0,1.8467985E0,3.570022E0,5.464044E-1,-7.346653E-2,2.517256E-2,-5.952735E-2,2.7657827E-2,5.4251213E-2,-7.462799E-2,1.5039535E-2,-6.361172E-2,-4.3594956E-2,5.9181955E-2,-6.700946E-2,5.7374645E-2,-6.6017695E-2,4.7498476E-2,4.2576667E-2,-6.3793354E-2],"split_indices":[10,30,30,36,36,12,18,12,37,26,30,42,26,36,34,0,0,0,0,0,0,0,0,0,0,0,0,0,0,0,0],"split_type":[0,0,0,0,0,0,0,0,0,0,0,0,0,0,0,0,0,0,0,0,0,0,0,0,0,0,0,0,0,0,0],"sum_hessian":[5.657676E2,4.402139E2,1.255537E2,1.4258884E2,2.9762506E2,6.2621742E1,6.2931957E1,4.9636745E1,9.2952095E1,1.53759165E1,2.8224915E2,5.320895E1,9.412792E0,2.4667635E1,3.8264324E1,9.690481E0,3.9946266E1,8.5743614E1,7.2084823E0,2.3205538E0,1.3055363E1,2.7349878E2,8.750367E0,1.3807331E0,5.182822E1,7.0157914E0,2.3970008E0,2.1460518E1,3.2071173E0,3.3165752E1,5.09857E0],"tree_param":{"num_deleted":"0","num_feature":"51","num_nodes":"31","size_leaf_vector":"1"}},{"base_weights":[2.8023107E-2,1.12386234E-1,-4.9973467E-1,-6.481422E-2,1.4844096E-1,-8.6225736E-1,5.1403266E-1,-8.5804427E-1,1.9522135E-1,-1.2238218E0,-1.261238E-1,-5.4418303E-2,1.0383713E0,-6.963379E-2,2.3786396E-2,1.1210715E-2,-7.111659E-2,1.6163412E-2,-6.809685E-2,4.286878E-2,-4.117816E-2,6.206047E-2,-3.8706742E-2],"categories":[],"categories_nodes":[],"categories_segments":[],"categories_sizes":[],"default_left":[0,0,0,0,0,0,0,0,0,0,0,0,0,0,0,0,0,0,0,0,0,0,0],"id":57,"left_children":[1,3,5,-1,7,9,11,13,15,17,19,-1,21,-1,-1,-1,-1,-1,-1,-1,-1,-1,-1],"loss_changes":[2.5398216E1,2.5158218E1,2.9340626E1,0E0,2.2776518E1,1.5360493E1,1.9058277E1,1.6002712E1,2.1876543E1,8.768604E0,1.464093E1,0E0,7.0597E0,0E0,0E0,0E0,0E0,0E0,0E0,0E0,0E0,0E0,0E0],"parents":[2147483647,0,0,1,1,2,2,4,4,5,5,6,6,7,7,8,8,9,9,10,10,12,12],"right_children":[2,4,6,-1,8,10,12,14,16,18,20,-1,22,-1,-1,-1,-1,-1,-1,-1,-1,-1,-1],"split_conditions":[1.3672439E0,-1.6335291E0,1.1469512E0,-6.481422E-2,-2.562692E0,7.748277E-1,1.3420976E0,-4.8751783E-1,2.4447222E0,-1.593856E0,-8.3193403E-1,-5.4418303E-2,2.4703717E-1,-6.963379E-2,2.3786396E-2,1.1210715E-2,-7.111659E-2,1.6163412E-2,-6.809685E-2,4.286878E-2,-4.117816E-2,6.206047E-2,-3.8706742E-2],"split_indices":[19,20,11,0,37,27,23,38,24,38,41,0,48,0,0,0,0,0,0,0,0,0,0],"split_type":[0,0,0,0,0,0,0,0,0,0,0,0,0,0,0,0,0,0,0,0,0,0,0],"sum_hessian":[5.681864E2,4.9055695E2,7.7629456E1,1.1370096E1,4.7918686E2,5.7291496E1,2.033796E1,2.0512665E1,4.586742E2,3.79763E1,1.9315197E1,4.7490354E0,1.5588923E1,1.4611574E1,5.901091E0,4.514439E2,7.2302756E0,3.002573E0,3.4973724E1,7.9189334E0,1.1396263E1,1.4303421E1,1.2855018E0],"tree_param":{"num_deleted":"0","num_feature":"51","num_nodes":"23","size_leaf_vector":"1"}},{"base_weights":[6.175878E-3,-1.3618542E-1,2.8761265E-1,-2.7552414E-1,4.2922008E-1,-6.09562E-2,3.768544E-1,4.9994864E-2,-6.3920057E-1,-1.776484E-2,1.1383513E0,-6.205752E-2,4.3523684E-1,1.27530275E-2,-5.5431206E-2,-1.11417575E-2,-5.0867464E-2,-6.272876E-2,1.2537575E-2,6.4477555E-2,-4.756267E-2,2.4592852E-2,-6.1290998E-2],"categories":[],"categories_nodes":[],"categories_segments":[],"categories_sizes":[],"default_left":[0,0,0,0,0,0,0,0,0,0,0,0,0,0,0,0,0,0,0,0,0,0,0],"id":58,"left_children":[1,3,5,7,9,-1,11,13,15,17,19,-1,21,-1,-1,-1,-1,-1,-1,-1,-1,-1,-1],"loss_changes":[2.2502462E1,2.9504583E1,2.5827023E1,3.5530975E1,2.352031E1,0E0,1.7437025E1,3.8098225E1,2.2084274E1,1.574409E1,1.0287964E1,0E0,1.6909496E1,0E0,0E0,0E0,0E0,0E0,0E0,0E0,0E0,0E0,0E0],"parents":[2147483647,0,0,1,1,2,2,3,3,4,4,6,6,7,7,8,8,9,9,10,10,12,12],"right_children":[2,4,6,8,10,-1,12,14,16,18,20,-1,22,-1,-1,-1,-1,-1,-1,-1,-1,-1,-1],"split_conditions":[5.2428025E-1,1.06768E0,-1.5947031E0,-1.7971249E-1,2.1400096E0,-6.09562E-2,-1.643656E0,1.1146667E0,-3.7107095E-2,-6.1490005E-1,-6.3724355E-3,-6.205752E-2,1.618132E0,1.27530275E-2,-5.5431206E-2,-1.11417575E-2,-5.0867464E-2,-6.272876E-2,1.2537575E-2,6.4477555E-2,-4.756267E-2,2.4592852E-2,-6.1290998E-2],"split_indices":[42,27,4,27,37,0,29,37,39,47,5,0,12,0,0,0,0,0,0,0,0,0,0],"split_type":[0,0,0,0,0,0,0,0,0,0,0,0,0,0,0,0,0,0,0,0,0,0,0],"sum_hessian":[5.596614E2,3.7200394E2,1.8765746E2,2.9886438E2,7.313954E1,9.785215E0,1.7787224E2,1.5816066E2,1.4070372E2,4.545988E1,2.7679663E1,5.489097E0,1.7238315E2,1.3503966E2,2.312101E1,6.77243E1,7.2979416E1,7.4539714E0,3.8005913E1,2.6168997E1,1.5106649E0,1.6738153E2,5.001618E0],"tree_param":{"num_deleted":"0","num_feature":"51","num_nodes":"23","size_leaf_vector":"1"}},{"base_weights":[7.116048E-2,7.894535E-1,3.0977715E-2,1.2358816E0,-2.1890116E-1,-7.793304E-2,3.6128995E-1,1.4400878E0,-4.1440237E-2,-6.186212E-2,5.5707335E-2,-1.6926537E-1,5.717726E-1,-2.5529474E-1,6.277235E-1,3.3532586E-2,7.5505845E-2,-3.9674208E-2,-2.2455529E-4,-6.0200047E-2,3.9401073E-2,2.3382122E-2,-5.2791696E-2,3.6875073E-2,-5.893E-2],"categories":[],"categories_nodes":[],"categories_segments":[],"categories_sizes":[],"default_left":[0,0,0,0,0,0,0,0,0,0,0,0,0,0,0,0,0,0,0,0,0,0,0,0,0],"id":59,"left_children":[1,3,5,7,9,11,13,15,-1,-1,-1,17,19,21,23,-1,-1,-1,-1,-1,-1,-1,-1,-1,-1],"loss_changes":[1.6766003E1,1.4125584E1,1.9884356E1,1.0251583E1,1.5353109E1,2.4776558E1,2.2673124E1,6.0344696E-2,0E0,0E0,0E0,3.758195E1,2.0721048E1,2.4835655E1,1.990158E1,0E0,0E0,0E0,0E0,0E0,0E0,0E0,0E0,0E0,0E0],"parents":[2147483647,0,0,1,1,2,2,3,3,4,4,5,5,6,6,7,7,11,11,12,12,13,13,14,14],"right_children":[2,4,6,8,10,12,14,16,-1,-1,-1,18,20,22,24,-1,-1,-1,-1,-1,-1,-1,-1,-1,-1],"split_conditions":[-2.1487117E0,5.6947964E-1,8.649904E-1,1.2653539E0,1.9565651E0,1.2345151E0,-9.7682156E-2,-1.0774308E0,-4.1440237E-2,-6.186212E-2,5.5707335E-2,-4.323787E-1,-1.6168221E0,-8.93561E-1,9.199419E-1,